=== Run information ===

Scheme:       weka.classifiers.trees.J48 -C 0.25 -M 2
Relation:     df_sin_meteo_cluster-weka.filters.unsupervised.attribute.Remove-R1,3,13-14
Instances:    325958
Attributes:   10
              HORA
              CHOQUE_CON
              TIPO LUGAR
              GRAVEDAD
              TIPO PERSONA
              EDAD
              SEXO
              PERSONAS IMPLICADAS
              DIA_SEMANA
              Cluster
Test mode:    split 80.0% train, remainder test

=== Classifier model (full training set) ===

J48 pruned tree
------------------

TIPO PERSONA = PEATON
|   EDAD <= 81
|   |   CHOQUE_CON = Vehiculo
|   |   |   PERSONAS IMPLICADAS <= 8: Con Heridos (1556.6/84.85)
|   |   |   PERSONAS IMPLICADAS > 8
|   |   |   |   DIA_SEMANA = LABORAL
|   |   |   |   |   Cluster <= 3: Con Heridos (40.94)
|   |   |   |   |   Cluster > 3
|   |   |   |   |   |   Cluster <= 4
|   |   |   |   |   |   |   TIPO LUGAR = Intersección
|   |   |   |   |   |   |   |   PERSONAS IMPLICADAS <= 9: Con Heridos (3.0)
|   |   |   |   |   |   |   |   PERSONAS IMPLICADAS > 9: Con Muertos (15.0)
|   |   |   |   |   |   |   TIPO LUGAR = Via
|   |   |   |   |   |   |   |   SEXO = FEMENINO: Con Heridos (6.0)
|   |   |   |   |   |   |   |   SEXO = MASCULINO: Con Heridos (2.0)
|   |   |   |   |   |   |   |   SEXO = SIN INFORMACION: Con Muertos (2.95)
|   |   |   |   |   |   |   TIPO LUGAR = Lote o predio: Con Muertos (0.0)
|   |   |   |   |   |   |   TIPO LUGAR = Puente: Con Muertos (0.0)
|   |   |   |   |   |   |   TIPO LUGAR = Paso inferior: Con Muertos (0.0)
|   |   |   |   |   |   |   TIPO LUGAR = Peatonal / Cicloruta: Con Muertos (0.0)
|   |   |   |   |   |   |   TIPO LUGAR = Tunel: Con Muertos (0.0)
|   |   |   |   |   |   Cluster > 4
|   |   |   |   |   |   |   EDAD <= 3: Con Muertos (4.0)
|   |   |   |   |   |   |   EDAD > 3: Con Heridos (72.0/5.0)
|   |   |   |   DIA_SEMANA = FDS: Con Heridos (77.0)
|   |   CHOQUE_CON = Objeto Fijo
|   |   |   Cluster <= 3: Con Heridos (123.0/5.0)
|   |   |   Cluster > 3
|   |   |   |   HORA = Mañana
|   |   |   |   |   TIPO LUGAR = Intersección
|   |   |   |   |   |   PERSONAS IMPLICADAS <= 5: Con Heridos (5.0)
|   |   |   |   |   |   PERSONAS IMPLICADAS > 5: Con Muertos (3.0)
|   |   |   |   |   TIPO LUGAR = Via
|   |   |   |   |   |   PERSONAS IMPLICADAS <= 3
|   |   |   |   |   |   |   PERSONAS IMPLICADAS <= 2: Con Heridos (11.0/1.0)
|   |   |   |   |   |   |   PERSONAS IMPLICADAS > 2
|   |   |   |   |   |   |   |   Cluster <= 4: Con Muertos (2.98)
|   |   |   |   |   |   |   |   Cluster > 4
|   |   |   |   |   |   |   |   |   Cluster <= 8: Con Heridos (8.0)
|   |   |   |   |   |   |   |   |   Cluster > 8: Con Muertos (2.0)
|   |   |   |   |   |   PERSONAS IMPLICADAS > 3: Con Heridos (15.98)
|   |   |   |   |   TIPO LUGAR = Lote o predio: Con Heridos (0.0)
|   |   |   |   |   TIPO LUGAR = Puente: Con Heridos (0.0)
|   |   |   |   |   TIPO LUGAR = Paso inferior: Con Heridos (0.0)
|   |   |   |   |   TIPO LUGAR = Peatonal / Cicloruta: Con Heridos (0.0)
|   |   |   |   |   TIPO LUGAR = Tunel: Con Heridos (0.0)
|   |   |   |   HORA = Tarde: Con Heridos (47.0)
|   |   |   |   HORA = Anochecer
|   |   |   |   |   PERSONAS IMPLICADAS <= 5
|   |   |   |   |   |   EDAD <= 18: Con Muertos (5.0/1.0)
|   |   |   |   |   |   EDAD > 18: Con Heridos (16.0/1.0)
|   |   |   |   |   PERSONAS IMPLICADAS > 5: Con Muertos (4.0)
|   |   |   |   HORA = Madrugada
|   |   |   |   |   PERSONAS IMPLICADAS <= 10
|   |   |   |   |   |   EDAD <= 59: Con Heridos (19.77/1.89)
|   |   |   |   |   |   EDAD > 59: Con Muertos (2.2/0.1)
|   |   |   |   |   PERSONAS IMPLICADAS > 10: Con Muertos (5.0)
|   EDAD > 81
|   |   PERSONAS IMPLICADAS <= 4: Con Heridos (18.32/2.13)
|   |   PERSONAS IMPLICADAS > 4
|   |   |   EDAD <= 89: Con Muertos (10.17/0.11)
|   |   |   EDAD > 89: Con Heridos (5.09/0.03)
TIPO PERSONA = CONDUCTOR
|   PERSONAS IMPLICADAS <= 2: Solo Daños (176811.0/14503.0)
|   PERSONAS IMPLICADAS > 2
|   |   PERSONAS IMPLICADAS <= 4
|   |   |   TIPO LUGAR = Intersección
|   |   |   |   PERSONAS IMPLICADAS <= 3: Con Heridos (4107.0/1136.0)
|   |   |   |   PERSONAS IMPLICADAS > 3
|   |   |   |   |   Cluster <= 0
|   |   |   |   |   |   CHOQUE_CON = Vehiculo
|   |   |   |   |   |   |   HORA = Mañana: Solo Daños (265.0/99.0)
|   |   |   |   |   |   |   HORA = Tarde
|   |   |   |   |   |   |   |   DIA_SEMANA = LABORAL: Solo Daños (222.0/91.0)
|   |   |   |   |   |   |   |   DIA_SEMANA = FDS
|   |   |   |   |   |   |   |   |   EDAD <= 60: Solo Daños (74.0/28.0)
|   |   |   |   |   |   |   |   |   EDAD > 60: Con Heridos (4.0)
|   |   |   |   |   |   |   HORA = Anochecer
|   |   |   |   |   |   |   |   DIA_SEMANA = LABORAL
|   |   |   |   |   |   |   |   |   EDAD <= 43: Solo Daños (85.19/39.19)
|   |   |   |   |   |   |   |   |   EDAD > 43
|   |   |   |   |   |   |   |   |   |   EDAD <= 54
|   |   |   |   |   |   |   |   |   |   |   EDAD <= 51: Solo Daños (30.43/14.43)
|   |   |   |   |   |   |   |   |   |   |   EDAD > 51: Con Heridos (6.09)
|   |   |   |   |   |   |   |   |   |   EDAD > 54: Solo Daños (21.3/5.3)
|   |   |   |   |   |   |   |   DIA_SEMANA = FDS
|   |   |   |   |   |   |   |   |   EDAD <= 55: Con Heridos (61.74/27.87)
|   |   |   |   |   |   |   |   |   EDAD > 55: Solo Daños (4.26/0.13)
|   |   |   |   |   |   |   HORA = Madrugada
|   |   |   |   |   |   |   |   DIA_SEMANA = LABORAL
|   |   |   |   |   |   |   |   |   SEXO = FEMENINO
|   |   |   |   |   |   |   |   |   |   EDAD <= 38: Con Heridos (2.0)
|   |   |   |   |   |   |   |   |   |   EDAD > 38: Solo Daños (2.0)
|   |   |   |   |   |   |   |   |   SEXO = MASCULINO
|   |   |   |   |   |   |   |   |   |   EDAD <= 35: Solo Daños (68.0/26.0)
|   |   |   |   |   |   |   |   |   |   EDAD > 35: Con Heridos (72.0/27.0)
|   |   |   |   |   |   |   |   |   SEXO = SIN INFORMACION: Con Heridos (2.0)
|   |   |   |   |   |   |   |   DIA_SEMANA = FDS: Solo Daños (72.0/18.0)
|   |   |   |   |   |   CHOQUE_CON = Objeto Fijo: Con Heridos (7.0)
|   |   |   |   |   Cluster > 0
|   |   |   |   |   |   Cluster <= 9
|   |   |   |   |   |   |   EDAD <= 47
|   |   |   |   |   |   |   |   HORA = Mañana
|   |   |   |   |   |   |   |   |   DIA_SEMANA = LABORAL
|   |   |   |   |   |   |   |   |   |   Cluster <= 3: Solo Daños (508.98/128.26)
|   |   |   |   |   |   |   |   |   |   Cluster > 3
|   |   |   |   |   |   |   |   |   |   |   EDAD <= 37: Solo Daños (464.84/118.93)
|   |   |   |   |   |   |   |   |   |   |   EDAD > 37
|   |   |   |   |   |   |   |   |   |   |   |   Cluster <= 5
|   |   |   |   |   |   |   |   |   |   |   |   |   EDAD <= 43
|   |   |   |   |   |   |   |   |   |   |   |   |   |   EDAD <= 41
|   |   |   |   |   |   |   |   |   |   |   |   |   |   |   Cluster <= 4
|   |   |   |   |   |   |   |   |   |   |   |   |   |   |   |   EDAD <= 40
|   |   |   |   |   |   |   |   |   |   |   |   |   |   |   |   |   EDAD <= 39
|   |   |   |   |   |   |   |   |   |   |   |   |   |   |   |   |   |   EDAD <= 38: Solo Daños (10.29/4.2)
|   |   |   |   |   |   |   |   |   |   |   |   |   |   |   |   |   |   EDAD > 38: Con Heridos (3.09/0.03)
|   |   |   |   |   |   |   |   |   |   |   |   |   |   |   |   |   EDAD > 39: Solo Daños (5.15/1.1)
|   |   |   |   |   |   |   |   |   |   |   |   |   |   |   |   EDAD > 40: Con Heridos (2.06/0.02)
|   |   |   |   |   |   |   |   |   |   |   |   |   |   |   Cluster > 4: Solo Daños (10.39/2.2)
|   |   |   |   |   |   |   |   |   |   |   |   |   |   EDAD > 41: Con Heridos (7.23/0.09)
|   |   |   |   |   |   |   |   |   |   |   |   |   EDAD > 43: Solo Daños (35.11/6.67)
|   |   |   |   |   |   |   |   |   |   |   |   Cluster > 5
|   |   |   |   |   |   |   |   |   |   |   |   |   Cluster <= 6
|   |   |   |   |   |   |   |   |   |   |   |   |   |   EDAD <= 43
|   |   |   |   |   |   |   |   |   |   |   |   |   |   |   EDAD <= 40: Con Heridos (3.0/1.0)
|   |   |   |   |   |   |   |   |   |   |   |   |   |   |   EDAD > 40: Solo Daños (4.0)
|   |   |   |   |   |   |   |   |   |   |   |   |   |   EDAD > 43: Con Heridos (15.0/3.0)
|   |   |   |   |   |   |   |   |   |   |   |   |   Cluster > 6: Solo Daños (122.09/28.85)
|   |   |   |   |   |   |   |   |   DIA_SEMANA = FDS
|   |   |   |   |   |   |   |   |   |   EDAD <= 25
|   |   |   |   |   |   |   |   |   |   |   EDAD <= 21
|   |   |   |   |   |   |   |   |   |   |   |   Cluster <= 1: Solo Daños (5.07/1.0)
|   |   |   |   |   |   |   |   |   |   |   |   Cluster > 1
|   |   |   |   |   |   |   |   |   |   |   |   |   Cluster <= 4: Con Heridos (7.36/2.14)
|   |   |   |   |   |   |   |   |   |   |   |   |   Cluster > 4: Solo Daños (8.18/0.04)
|   |   |   |   |   |   |   |   |   |   |   EDAD > 21: Con Heridos (52.55/19.91)
|   |   |   |   |   |   |   |   |   |   EDAD > 25: Solo Daños (344.18/95.19)
|   |   |   |   |   |   |   |   HORA = Tarde: Solo Daños (1571.02/408.25)
|   |   |   |   |   |   |   |   HORA = Anochecer
|   |   |   |   |   |   |   |   |   Cluster <= 8
|   |   |   |   |   |   |   |   |   |   DIA_SEMANA = LABORAL
|   |   |   |   |   |   |   |   |   |   |   Cluster <= 1
|   |   |   |   |   |   |   |   |   |   |   |   EDAD <= 36
|   |   |   |   |   |   |   |   |   |   |   |   |   SEXO = FEMENINO
|   |   |   |   |   |   |   |   |   |   |   |   |   |   EDAD <= 28: Solo Daños (6.0)
|   |   |   |   |   |   |   |   |   |   |   |   |   |   EDAD > 28: Con Heridos (4.0/2.0)
|   |   |   |   |   |   |   |   |   |   |   |   |   SEXO = MASCULINO: Con Heridos (35.0/10.0)
|   |   |   |   |   |   |   |   |   |   |   |   |   SEXO = SIN INFORMACION: Con Heridos (2.66/0.76)
|   |   |   |   |   |   |   |   |   |   |   |   EDAD > 36
|   |   |   |   |   |   |   |   |   |   |   |   |   EDAD <= 44: Solo Daños (32.83/4.31)
|   |   |   |   |   |   |   |   |   |   |   |   |   EDAD > 44
|   |   |   |   |   |   |   |   |   |   |   |   |   |   EDAD <= 46: Con Heridos (8.47/2.14)
|   |   |   |   |   |   |   |   |   |   |   |   |   |   EDAD > 46: Solo Daños (2.12/0.08)
|   |   |   |   |   |   |   |   |   |   |   Cluster > 1: Solo Daños (641.96/192.62)
|   |   |   |   |   |   |   |   |   |   DIA_SEMANA = FDS
|   |   |   |   |   |   |   |   |   |   |   Cluster <= 6
|   |   |   |   |   |   |   |   |   |   |   |   SEXO = FEMENINO
|   |   |   |   |   |   |   |   |   |   |   |   |   Cluster <= 2: Solo Daños (10.0)
|   |   |   |   |   |   |   |   |   |   |   |   |   Cluster > 2
|   |   |   |   |   |   |   |   |   |   |   |   |   |   EDAD <= 35
|   |   |   |   |   |   |   |   |   |   |   |   |   |   |   Cluster <= 3: Solo Daños (2.0)
|   |   |   |   |   |   |   |   |   |   |   |   |   |   |   Cluster > 3
|   |   |   |   |   |   |   |   |   |   |   |   |   |   |   |   Cluster <= 4: Con Heridos (2.0)
|   |   |   |   |   |   |   |   |   |   |   |   |   |   |   |   Cluster > 4: Solo Daños (5.0/1.0)
|   |   |   |   |   |   |   |   |   |   |   |   |   |   EDAD > 35: Con Heridos (4.0)
|   |   |   |   |   |   |   |   |   |   |   |   SEXO = MASCULINO
|   |   |   |   |   |   |   |   |   |   |   |   |   Cluster <= 3
|   |   |   |   |   |   |   |   |   |   |   |   |   |   Cluster <= 2: Solo Daños (50.0/14.0)
|   |   |   |   |   |   |   |   |   |   |   |   |   |   Cluster > 2
|   |   |   |   |   |   |   |   |   |   |   |   |   |   |   EDAD <= 26: Con Heridos (6.0)
|   |   |   |   |   |   |   |   |   |   |   |   |   |   |   EDAD > 26
|   |   |   |   |   |   |   |   |   |   |   |   |   |   |   |   EDAD <= 43: Solo Daños (11.0/3.0)
|   |   |   |   |   |   |   |   |   |   |   |   |   |   |   |   EDAD > 43: Con Heridos (4.0)
|   |   |   |   |   |   |   |   |   |   |   |   |   Cluster > 3: Solo Daños (89.0/18.0)
|   |   |   |   |   |   |   |   |   |   |   |   SEXO = SIN INFORMACION: Con Heridos (10.17/4.36)
|   |   |   |   |   |   |   |   |   |   |   Cluster > 6
|   |   |   |   |   |   |   |   |   |   |   |   Cluster <= 7
|   |   |   |   |   |   |   |   |   |   |   |   |   SEXO = FEMENINO
|   |   |   |   |   |   |   |   |   |   |   |   |   |   EDAD <= 25
|   |   |   |   |   |   |   |   |   |   |   |   |   |   |   EDAD <= 23: Con Heridos (2.0)
|   |   |   |   |   |   |   |   |   |   |   |   |   |   |   EDAD > 23: Solo Daños (2.0)
|   |   |   |   |   |   |   |   |   |   |   |   |   |   EDAD > 25: Con Heridos (4.0)
|   |   |   |   |   |   |   |   |   |   |   |   |   SEXO = MASCULINO
|   |   |   |   |   |   |   |   |   |   |   |   |   |   EDAD <= 38
|   |   |   |   |   |   |   |   |   |   |   |   |   |   |   EDAD <= 20: Con Heridos (2.0)
|   |   |   |   |   |   |   |   |   |   |   |   |   |   |   EDAD > 20
|   |   |   |   |   |   |   |   |   |   |   |   |   |   |   |   EDAD <= 34
|   |   |   |   |   |   |   |   |   |   |   |   |   |   |   |   |   EDAD <= 30: Solo Daños (19.0/3.0)
|   |   |   |   |   |   |   |   |   |   |   |   |   |   |   |   |   EDAD > 30: Con Heridos (8.0/2.0)
|   |   |   |   |   |   |   |   |   |   |   |   |   |   |   |   EDAD > 34: Solo Daños (4.0)
|   |   |   |   |   |   |   |   |   |   |   |   |   |   EDAD > 38: Con Heridos (4.0)
|   |   |   |   |   |   |   |   |   |   |   |   |   SEXO = SIN INFORMACION: Solo Daños (1.45)
|   |   |   |   |   |   |   |   |   |   |   |   Cluster > 7
|   |   |   |   |   |   |   |   |   |   |   |   |   SEXO = FEMENINO: Solo Daños (5.0/1.0)
|   |   |   |   |   |   |   |   |   |   |   |   |   SEXO = MASCULINO: Con Heridos (39.0/16.0)
|   |   |   |   |   |   |   |   |   |   |   |   |   SEXO = SIN INFORMACION: Con Heridos (2.91)
|   |   |   |   |   |   |   |   |   Cluster > 8
|   |   |   |   |   |   |   |   |   |   EDAD <= 17: Con Heridos (2.0)
|   |   |   |   |   |   |   |   |   |   EDAD > 17: Solo Daños (65.0/7.0)
|   |   |   |   |   |   |   |   HORA = Madrugada
|   |   |   |   |   |   |   |   |   SEXO = FEMENINO
|   |   |   |   |   |   |   |   |   |   DIA_SEMANA = LABORAL
|   |   |   |   |   |   |   |   |   |   |   EDAD <= 23: Solo Daños (10.0)
|   |   |   |   |   |   |   |   |   |   |   EDAD > 23
|   |   |   |   |   |   |   |   |   |   |   |   EDAD <= 27: Con Heridos (6.0)
|   |   |   |   |   |   |   |   |   |   |   |   EDAD > 27
|   |   |   |   |   |   |   |   |   |   |   |   |   EDAD <= 31: Solo Daños (12.0)
|   |   |   |   |   |   |   |   |   |   |   |   |   EDAD > 31
|   |   |   |   |   |   |   |   |   |   |   |   |   |   Cluster <= 3: Con Heridos (3.0)
|   |   |   |   |   |   |   |   |   |   |   |   |   |   Cluster > 3: Solo Daños (16.0/6.0)
|   |   |   |   |   |   |   |   |   |   DIA_SEMANA = FDS
|   |   |   |   |   |   |   |   |   |   |   EDAD <= 34
|   |   |   |   |   |   |   |   |   |   |   |   EDAD <= 33: Con Heridos (4.0)
|   |   |   |   |   |   |   |   |   |   |   |   EDAD > 33: Solo Daños (2.0)
|   |   |   |   |   |   |   |   |   |   |   EDAD > 34: Con Heridos (9.0)
|   |   |   |   |   |   |   |   |   SEXO = MASCULINO
|   |   |   |   |   |   |   |   |   |   Cluster <= 1: Solo Daños (63.0/17.0)
|   |   |   |   |   |   |   |   |   |   Cluster > 1
|   |   |   |   |   |   |   |   |   |   |   EDAD <= 21
|   |   |   |   |   |   |   |   |   |   |   |   DIA_SEMANA = LABORAL: Solo Daños (47.13/8.0)
|   |   |   |   |   |   |   |   |   |   |   |   DIA_SEMANA = FDS
|   |   |   |   |   |   |   |   |   |   |   |   |   EDAD <= 17: Solo Daños (2.0)
|   |   |   |   |   |   |   |   |   |   |   |   |   EDAD > 17
|   |   |   |   |   |   |   |   |   |   |   |   |   |   EDAD <= 20
|   |   |   |   |   |   |   |   |   |   |   |   |   |   |   Cluster <= 8: Con Heridos (4.0)
|   |   |   |   |   |   |   |   |   |   |   |   |   |   |   Cluster > 8: Solo Daños (2.0)
|   |   |   |   |   |   |   |   |   |   |   |   |   |   EDAD > 20: Solo Daños (2.0)
|   |   |   |   |   |   |   |   |   |   |   EDAD > 21
|   |   |   |   |   |   |   |   |   |   |   |   EDAD <= 22: Con Heridos (27.06/6.06)
|   |   |   |   |   |   |   |   |   |   |   |   EDAD > 22
|   |   |   |   |   |   |   |   |   |   |   |   |   Cluster <= 8
|   |   |   |   |   |   |   |   |   |   |   |   |   |   DIA_SEMANA = LABORAL
|   |   |   |   |   |   |   |   |   |   |   |   |   |   |   EDAD <= 44: Solo Daños (338.19/118.0)
|   |   |   |   |   |   |   |   |   |   |   |   |   |   |   EDAD > 44
|   |   |   |   |   |   |   |   |   |   |   |   |   |   |   |   EDAD <= 45: Con Heridos (5.02/0.02)
|   |   |   |   |   |   |   |   |   |   |   |   |   |   |   |   EDAD > 45
|   |   |   |   |   |   |   |   |   |   |   |   |   |   |   |   |   EDAD <= 46
|   |   |   |   |   |   |   |   |   |   |   |   |   |   |   |   |   |   Cluster <= 6: Solo Daños (8.04/2.0)
|   |   |   |   |   |   |   |   |   |   |   |   |   |   |   |   |   |   Cluster > 6: Con Heridos (2.0)
|   |   |   |   |   |   |   |   |   |   |   |   |   |   |   |   |   EDAD > 46: Con Heridos (4.01/0.01)
|   |   |   |   |   |   |   |   |   |   |   |   |   |   DIA_SEMANA = FDS
|   |   |   |   |   |   |   |   |   |   |   |   |   |   |   Cluster <= 7
|   |   |   |   |   |   |   |   |   |   |   |   |   |   |   |   Cluster <= 5
|   |   |   |   |   |   |   |   |   |   |   |   |   |   |   |   |   EDAD <= 37
|   |   |   |   |   |   |   |   |   |   |   |   |   |   |   |   |   |   EDAD <= 23: Solo Daños (4.0)
|   |   |   |   |   |   |   |   |   |   |   |   |   |   |   |   |   |   EDAD > 23: Con Heridos (53.0/22.0)
|   |   |   |   |   |   |   |   |   |   |   |   |   |   |   |   |   EDAD > 37: Solo Daños (36.0/10.0)
|   |   |   |   |   |   |   |   |   |   |   |   |   |   |   |   Cluster > 5
|   |   |   |   |   |   |   |   |   |   |   |   |   |   |   |   |   EDAD <= 27
|   |   |   |   |   |   |   |   |   |   |   |   |   |   |   |   |   |   EDAD <= 24: Con Heridos (2.0)
|   |   |   |   |   |   |   |   |   |   |   |   |   |   |   |   |   |   EDAD > 24: Solo Daños (6.0)
|   |   |   |   |   |   |   |   |   |   |   |   |   |   |   |   |   EDAD > 27
|   |   |   |   |   |   |   |   |   |   |   |   |   |   |   |   |   |   EDAD <= 35: Con Heridos (10.0)
|   |   |   |   |   |   |   |   |   |   |   |   |   |   |   |   |   |   EDAD > 35
|   |   |   |   |   |   |   |   |   |   |   |   |   |   |   |   |   |   |   EDAD <= 38: Solo Daños (2.0)
|   |   |   |   |   |   |   |   |   |   |   |   |   |   |   |   |   |   |   EDAD > 38: Con Heridos (9.0/2.0)
|   |   |   |   |   |   |   |   |   |   |   |   |   |   |   Cluster > 7: Solo Daños (51.0/11.0)
|   |   |   |   |   |   |   |   |   |   |   |   |   Cluster > 8: Solo Daños (25.0/3.0)
|   |   |   |   |   |   |   |   |   SEXO = SIN INFORMACION
|   |   |   |   |   |   |   |   |   |   DIA_SEMANA = LABORAL: Con Heridos (35.59/14.53)
|   |   |   |   |   |   |   |   |   |   DIA_SEMANA = FDS: Solo Daños (12.17/2.91)
|   |   |   |   |   |   |   EDAD > 47
|   |   |   |   |   |   |   |   HORA = Mañana
|   |   |   |   |   |   |   |   |   Cluster <= 3
|   |   |   |   |   |   |   |   |   |   SEXO = FEMENINO
|   |   |   |   |   |   |   |   |   |   |   EDAD <= 63
|   |   |   |   |   |   |   |   |   |   |   |   DIA_SEMANA = LABORAL
|   |   |   |   |   |   |   |   |   |   |   |   |   EDAD <= 49: Solo Daños (3.0/1.0)
|   |   |   |   |   |   |   |   |   |   |   |   |   EDAD > 49: Con Heridos (12.0)
|   |   |   |   |   |   |   |   |   |   |   |   DIA_SEMANA = FDS: Solo Daños (4.0/1.0)
|   |   |   |   |   |   |   |   |   |   |   EDAD > 63: Solo Daños (4.0)
|   |   |   |   |   |   |   |   |   |   SEXO = MASCULINO: Solo Daños (255.55/68.55)
|   |   |   |   |   |   |   |   |   |   SEXO = SIN INFORMACION: Con Heridos (10.21/4.93)
|   |   |   |   |   |   |   |   |   Cluster > 3
|   |   |   |   |   |   |   |   |   |   DIA_SEMANA = LABORAL
|   |   |   |   |   |   |   |   |   |   |   EDAD <= 76: Solo Daños (258.49/101.71)
|   |   |   |   |   |   |   |   |   |   |   EDAD > 76: Con Heridos (8.27/0.15)
|   |   |   |   |   |   |   |   |   |   DIA_SEMANA = FDS
|   |   |   |   |   |   |   |   |   |   |   EDAD <= 53: Con Heridos (28.63/10.36)
|   |   |   |   |   |   |   |   |   |   |   EDAD > 53
|   |   |   |   |   |   |   |   |   |   |   |   EDAD <= 64
|   |   |   |   |   |   |   |   |   |   |   |   |   Cluster <= 7: Solo Daños (31.3/5.3)
|   |   |   |   |   |   |   |   |   |   |   |   |   Cluster > 7
|   |   |   |   |   |   |   |   |   |   |   |   |   |   Cluster <= 8
|   |   |   |   |   |   |   |   |   |   |   |   |   |   |   EDAD <= 62
|   |   |   |   |   |   |   |   |   |   |   |   |   |   |   |   EDAD <= 54: Solo Daños (2.13/0.03)
|   |   |   |   |   |   |   |   |   |   |   |   |   |   |   |   EDAD > 54: Con Heridos (5.32/0.25)
|   |   |   |   |   |   |   |   |   |   |   |   |   |   |   EDAD > 62: Solo Daños (5.32/1.06)
|   |   |   |   |   |   |   |   |   |   |   |   |   |   Cluster > 8: Solo Daños (4.0)
|   |   |   |   |   |   |   |   |   |   |   |   EDAD > 64
|   |   |   |   |   |   |   |   |   |   |   |   |   EDAD <= 66
|   |   |   |   |   |   |   |   |   |   |   |   |   |   EDAD <= 65: Con Muertos (2.05/0.05)
|   |   |   |   |   |   |   |   |   |   |   |   |   |   EDAD > 65: Solo Daños (2.05/0.02)
|   |   |   |   |   |   |   |   |   |   |   |   |   EDAD > 66: Con Heridos (6.14/2.08)
|   |   |   |   |   |   |   |   HORA = Tarde
|   |   |   |   |   |   |   |   |   SEXO = FEMENINO
|   |   |   |   |   |   |   |   |   |   DIA_SEMANA = LABORAL: Solo Daños (36.0/6.0)
|   |   |   |   |   |   |   |   |   |   DIA_SEMANA = FDS
|   |   |   |   |   |   |   |   |   |   |   Cluster <= 6
|   |   |   |   |   |   |   |   |   |   |   |   EDAD <= 58
|   |   |   |   |   |   |   |   |   |   |   |   |   EDAD <= 48: Solo Daños (2.0)
|   |   |   |   |   |   |   |   |   |   |   |   |   EDAD > 48: Con Heridos (9.0/2.0)
|   |   |   |   |   |   |   |   |   |   |   |   EDAD > 58: Solo Daños (6.0)
|   |   |   |   |   |   |   |   |   |   |   Cluster > 6: Con Heridos (7.0)
|   |   |   |   |   |   |   |   |   SEXO = MASCULINO: Solo Daños (586.0/200.0)
|   |   |   |   |   |   |   |   |   SEXO = SIN INFORMACION: Solo Daños (19.98/5.75)
|   |   |   |   |   |   |   |   HORA = Anochecer
|   |   |   |   |   |   |   |   |   SEXO = FEMENINO
|   |   |   |   |   |   |   |   |   |   EDAD <= 50: Con Heridos (5.0)
|   |   |   |   |   |   |   |   |   |   EDAD > 50
|   |   |   |   |   |   |   |   |   |   |   Cluster <= 1: Con Heridos (4.0)
|   |   |   |   |   |   |   |   |   |   |   Cluster > 1
|   |   |   |   |   |   |   |   |   |   |   |   Cluster <= 6: Solo Daños (8.0)
|   |   |   |   |   |   |   |   |   |   |   |   Cluster > 6
|   |   |   |   |   |   |   |   |   |   |   |   |   DIA_SEMANA = LABORAL: Con Heridos (3.0)
|   |   |   |   |   |   |   |   |   |   |   |   |   DIA_SEMANA = FDS: Solo Daños (2.0)
|   |   |   |   |   |   |   |   |   SEXO = MASCULINO
|   |   |   |   |   |   |   |   |   |   DIA_SEMANA = LABORAL
|   |   |   |   |   |   |   |   |   |   |   EDAD <= 55
|   |   |   |   |   |   |   |   |   |   |   |   Cluster <= 1: Con Heridos (21.0/4.0)
|   |   |   |   |   |   |   |   |   |   |   |   Cluster > 1: Solo Daños (109.0/37.0)
|   |   |   |   |   |   |   |   |   |   |   EDAD > 55
|   |   |   |   |   |   |   |   |   |   |   |   Cluster <= 5
|   |   |   |   |   |   |   |   |   |   |   |   |   EDAD <= 59: Solo Daños (28.0)
|   |   |   |   |   |   |   |   |   |   |   |   |   EDAD > 59
|   |   |   |   |   |   |   |   |   |   |   |   |   |   Cluster <= 1: Solo Daños (12.0/2.0)
|   |   |   |   |   |   |   |   |   |   |   |   |   |   Cluster > 1
|   |   |   |   |   |   |   |   |   |   |   |   |   |   |   Cluster <= 2
|   |   |   |   |   |   |   |   |   |   |   |   |   |   |   |   EDAD <= 67: Con Heridos (5.0)
|   |   |   |   |   |   |   |   |   |   |   |   |   |   |   |   EDAD > 67: Solo Daños (2.0)
|   |   |   |   |   |   |   |   |   |   |   |   |   |   |   Cluster > 2
|   |   |   |   |   |   |   |   |   |   |   |   |   |   |   |   EDAD <= 62: Solo Daños (13.0)
|   |   |   |   |   |   |   |   |   |   |   |   |   |   |   |   EDAD > 62: Con Heridos (5.0/2.0)
|   |   |   |   |   |   |   |   |   |   |   |   Cluster > 5
|   |   |   |   |   |   |   |   |   |   |   |   |   Cluster <= 7
|   |   |   |   |   |   |   |   |   |   |   |   |   |   EDAD <= 56: Solo Daños (2.0)
|   |   |   |   |   |   |   |   |   |   |   |   |   |   EDAD > 56
|   |   |   |   |   |   |   |   |   |   |   |   |   |   |   EDAD <= 59
|   |   |   |   |   |   |   |   |   |   |   |   |   |   |   |   EDAD <= 58: Con Heridos (5.0)
|   |   |   |   |   |   |   |   |   |   |   |   |   |   |   |   EDAD > 58: Solo Daños (2.0)
|   |   |   |   |   |   |   |   |   |   |   |   |   |   |   EDAD > 59: Con Heridos (6.0)
|   |   |   |   |   |   |   |   |   |   |   |   |   Cluster > 7
|   |   |   |   |   |   |   |   |   |   |   |   |   |   EDAD <= 58
|   |   |   |   |   |   |   |   |   |   |   |   |   |   |   EDAD <= 56: Solo Daños (2.0)
|   |   |   |   |   |   |   |   |   |   |   |   |   |   |   EDAD > 56: Con Heridos (8.0/4.0)
|   |   |   |   |   |   |   |   |   |   |   |   |   |   EDAD > 58: Solo Daños (18.0/2.0)
|   |   |   |   |   |   |   |   |   |   DIA_SEMANA = FDS
|   |   |   |   |   |   |   |   |   |   |   EDAD <= 54
|   |   |   |   |   |   |   |   |   |   |   |   EDAD <= 48: Solo Daños (6.0)
|   |   |   |   |   |   |   |   |   |   |   |   EDAD > 48
|   |   |   |   |   |   |   |   |   |   |   |   |   EDAD <= 51
|   |   |   |   |   |   |   |   |   |   |   |   |   |   Cluster <= 2: Con Heridos (4.0)
|   |   |   |   |   |   |   |   |   |   |   |   |   |   Cluster > 2
|   |   |   |   |   |   |   |   |   |   |   |   |   |   |   Cluster <= 5: Solo Daños (6.0)
|   |   |   |   |   |   |   |   |   |   |   |   |   |   |   Cluster > 5
|   |   |   |   |   |   |   |   |   |   |   |   |   |   |   |   EDAD <= 49: Con Heridos (4.0)
|   |   |   |   |   |   |   |   |   |   |   |   |   |   |   |   EDAD > 49: Solo Daños (2.0)
|   |   |   |   |   |   |   |   |   |   |   |   |   EDAD > 51: Solo Daños (17.0/2.0)
|   |   |   |   |   |   |   |   |   |   |   EDAD > 54
|   |   |   |   |   |   |   |   |   |   |   |   Cluster <= 6
|   |   |   |   |   |   |   |   |   |   |   |   |   EDAD <= 65
|   |   |   |   |   |   |   |   |   |   |   |   |   |   EDAD <= 64: Solo Daños (23.0/10.0)
|   |   |   |   |   |   |   |   |   |   |   |   |   |   EDAD > 64: Con Heridos (4.0)
|   |   |   |   |   |   |   |   |   |   |   |   |   EDAD > 65: Solo Daños (4.0)
|   |   |   |   |   |   |   |   |   |   |   |   Cluster > 6: Con Heridos (9.0)
|   |   |   |   |   |   |   |   |   SEXO = SIN INFORMACION: Solo Daños (19.43/9.03)
|   |   |   |   |   |   |   |   HORA = Madrugada
|   |   |   |   |   |   |   |   |   Cluster <= 3
|   |   |   |   |   |   |   |   |   |   DIA_SEMANA = LABORAL
|   |   |   |   |   |   |   |   |   |   |   SEXO = FEMENINO: Solo Daños (3.0/1.0)
|   |   |   |   |   |   |   |   |   |   |   SEXO = MASCULINO
|   |   |   |   |   |   |   |   |   |   |   |   EDAD <= 59
|   |   |   |   |   |   |   |   |   |   |   |   |   EDAD <= 52: Solo Daños (23.0/9.0)
|   |   |   |   |   |   |   |   |   |   |   |   |   EDAD > 52
|   |   |   |   |   |   |   |   |   |   |   |   |   |   Cluster <= 2: Con Heridos (11.0/2.0)
|   |   |   |   |   |   |   |   |   |   |   |   |   |   Cluster > 2
|   |   |   |   |   |   |   |   |   |   |   |   |   |   |   EDAD <= 56: Solo Daños (2.0)
|   |   |   |   |   |   |   |   |   |   |   |   |   |   |   EDAD > 56: Con Heridos (4.0/2.0)
|   |   |   |   |   |   |   |   |   |   |   |   EDAD > 59
|   |   |   |   |   |   |   |   |   |   |   |   |   EDAD <= 66: Solo Daños (13.0/1.0)
|   |   |   |   |   |   |   |   |   |   |   |   |   EDAD > 66
|   |   |   |   |   |   |   |   |   |   |   |   |   |   Cluster <= 2
|   |   |   |   |   |   |   |   |   |   |   |   |   |   |   EDAD <= 74: Solo Daños (2.0)
|   |   |   |   |   |   |   |   |   |   |   |   |   |   |   EDAD > 74: Con Heridos (2.0)
|   |   |   |   |   |   |   |   |   |   |   |   |   |   Cluster > 2: Con Heridos (4.0)
|   |   |   |   |   |   |   |   |   |   |   SEXO = SIN INFORMACION: Con Heridos (4.38/1.09)
|   |   |   |   |   |   |   |   |   |   DIA_SEMANA = FDS: Solo Daños (21.64/8.0)
|   |   |   |   |   |   |   |   |   Cluster > 3
|   |   |   |   |   |   |   |   |   |   DIA_SEMANA = LABORAL
|   |   |   |   |   |   |   |   |   |   |   EDAD <= 63
|   |   |   |   |   |   |   |   |   |   |   |   EDAD <= 55
|   |   |   |   |   |   |   |   |   |   |   |   |   EDAD <= 50
|   |   |   |   |   |   |   |   |   |   |   |   |   |   Cluster <= 6: Solo Daños (13.29/2.77)
|   |   |   |   |   |   |   |   |   |   |   |   |   |   Cluster > 6: Con Heridos (8.97/2.64)
|   |   |   |   |   |   |   |   |   |   |   |   |   EDAD > 50: Con Heridos (30.04/7.56)
|   |   |   |   |   |   |   |   |   |   |   |   EDAD > 55: Solo Daños (34.49/10.7)
|   |   |   |   |   |   |   |   |   |   |   EDAD > 63: Con Heridos (7.79/2.41)
|   |   |   |   |   |   |   |   |   |   DIA_SEMANA = FDS
|   |   |   |   |   |   |   |   |   |   |   Cluster <= 6
|   |   |   |   |   |   |   |   |   |   |   |   Cluster <= 5
|   |   |   |   |   |   |   |   |   |   |   |   |   EDAD <= 63
|   |   |   |   |   |   |   |   |   |   |   |   |   |   EDAD <= 55: Solo Daños (9.37/1.12)
|   |   |   |   |   |   |   |   |   |   |   |   |   |   EDAD > 55: Con Heridos (7.29/0.19)
|   |   |   |   |   |   |   |   |   |   |   |   |   EDAD > 63: Solo Daños (4.16/0.05)
|   |   |   |   |   |   |   |   |   |   |   |   Cluster > 5: Solo Daños (6.55/0.55)
|   |   |   |   |   |   |   |   |   |   |   Cluster > 6
|   |   |   |   |   |   |   |   |   |   |   |   Cluster <= 7: Con Heridos (8.0)
|   |   |   |   |   |   |   |   |   |   |   |   Cluster > 7
|   |   |   |   |   |   |   |   |   |   |   |   |   EDAD <= 66: Solo Daños (23.73/9.24)
|   |   |   |   |   |   |   |   |   |   |   |   |   EDAD > 66: Con Heridos (3.09/0.06)
|   |   |   |   |   |   Cluster > 9
|   |   |   |   |   |   |   HORA = Mañana
|   |   |   |   |   |   |   |   EDAD <= 56: Solo Daños (281.08/56.0)
|   |   |   |   |   |   |   |   EDAD > 56
|   |   |   |   |   |   |   |   |   EDAD <= 73
|   |   |   |   |   |   |   |   |   |   DIA_SEMANA = LABORAL: Con Heridos (34.77/12.77)
|   |   |   |   |   |   |   |   |   |   DIA_SEMANA = FDS
|   |   |   |   |   |   |   |   |   |   |   EDAD <= 58: Con Heridos (2.0)
|   |   |   |   |   |   |   |   |   |   |   EDAD > 58: Solo Daños (6.0)
|   |   |   |   |   |   |   |   |   EDAD > 73: Solo Daños (8.15)
|   |   |   |   |   |   |   HORA = Tarde
|   |   |   |   |   |   |   |   EDAD <= 40
|   |   |   |   |   |   |   |   |   EDAD <= 19: Con Heridos (6.28/2.14)
|   |   |   |   |   |   |   |   |   EDAD > 19
|   |   |   |   |   |   |   |   |   |   EDAD <= 27
|   |   |   |   |   |   |   |   |   |   |   EDAD <= 26: Solo Daños (35.59/5.79)
|   |   |   |   |   |   |   |   |   |   |   EDAD > 26: Con Heridos (4.19/0.09)
|   |   |   |   |   |   |   |   |   |   EDAD > 27: Solo Daños (88.97/7.98)
|   |   |   |   |   |   |   |   EDAD > 40
|   |   |   |   |   |   |   |   |   EDAD <= 45
|   |   |   |   |   |   |   |   |   |   EDAD <= 44
|   |   |   |   |   |   |   |   |   |   |   EDAD <= 41: Solo Daños (9.42/3.21)
|   |   |   |   |   |   |   |   |   |   |   EDAD > 41
|   |   |   |   |   |   |   |   |   |   |   |   EDAD <= 42: Con Heridos (6.28/0.14)
|   |   |   |   |   |   |   |   |   |   |   |   EDAD > 42: Solo Daños (16.75/2.37)
|   |   |   |   |   |   |   |   |   |   EDAD > 44: Con Heridos (10.47/2.23)
|   |   |   |   |   |   |   |   |   EDAD > 45: Solo Daños (91.06/24.03)
|   |   |   |   |   |   |   HORA = Anochecer: Solo Daños (137.0/28.0)
|   |   |   |   |   |   |   HORA = Madrugada
|   |   |   |   |   |   |   |   DIA_SEMANA = LABORAL
|   |   |   |   |   |   |   |   |   EDAD <= 32: Con Heridos (8.0)
|   |   |   |   |   |   |   |   |   EDAD > 32: Solo Daños (14.0/6.0)
|   |   |   |   |   |   |   |   DIA_SEMANA = FDS
|   |   |   |   |   |   |   |   |   EDAD <= 30: Solo Daños (6.0)
|   |   |   |   |   |   |   |   |   EDAD > 30: Con Heridos (2.0)
|   |   |   TIPO LUGAR = Via
|   |   |   |   PERSONAS IMPLICADAS <= 3
|   |   |   |   |   CHOQUE_CON = Vehiculo: Solo Daños (17313.0/5346.0)
|   |   |   |   |   CHOQUE_CON = Objeto Fijo
|   |   |   |   |   |   SEXO = FEMENINO: Solo Daños (27.0/9.0)
|   |   |   |   |   |   SEXO = MASCULINO
|   |   |   |   |   |   |   HORA = Mañana
|   |   |   |   |   |   |   |   Cluster <= 0: Con Heridos (7.0/1.0)
|   |   |   |   |   |   |   |   Cluster > 0
|   |   |   |   |   |   |   |   |   Cluster <= 3: Solo Daños (32.0/5.0)
|   |   |   |   |   |   |   |   |   Cluster > 3
|   |   |   |   |   |   |   |   |   |   Cluster <= 8
|   |   |   |   |   |   |   |   |   |   |   Cluster <= 6
|   |   |   |   |   |   |   |   |   |   |   |   DIA_SEMANA = LABORAL
|   |   |   |   |   |   |   |   |   |   |   |   |   EDAD <= 43: Con Heridos (7.0)
|   |   |   |   |   |   |   |   |   |   |   |   |   EDAD > 43: Solo Daños (3.0)
|   |   |   |   |   |   |   |   |   |   |   |   DIA_SEMANA = FDS
|   |   |   |   |   |   |   |   |   |   |   |   |   EDAD <= 30: Con Heridos (2.0/1.0)
|   |   |   |   |   |   |   |   |   |   |   |   |   EDAD > 30: Solo Daños (3.0/1.0)
|   |   |   |   |   |   |   |   |   |   |   Cluster > 6
|   |   |   |   |   |   |   |   |   |   |   |   DIA_SEMANA = LABORAL: Solo Daños (18.0/6.0)
|   |   |   |   |   |   |   |   |   |   |   |   DIA_SEMANA = FDS
|   |   |   |   |   |   |   |   |   |   |   |   |   EDAD <= 34: Con Heridos (2.0)
|   |   |   |   |   |   |   |   |   |   |   |   |   EDAD > 34: Solo Daños (2.0)
|   |   |   |   |   |   |   |   |   |   Cluster > 8: Con Heridos (4.0/1.0)
|   |   |   |   |   |   |   HORA = Tarde
|   |   |   |   |   |   |   |   DIA_SEMANA = LABORAL
|   |   |   |   |   |   |   |   |   Cluster <= 3: Solo Daños (17.0/5.0)
|   |   |   |   |   |   |   |   |   Cluster > 3
|   |   |   |   |   |   |   |   |   |   EDAD <= 28: Con Heridos (3.0)
|   |   |   |   |   |   |   |   |   |   EDAD > 28
|   |   |   |   |   |   |   |   |   |   |   Cluster <= 5
|   |   |   |   |   |   |   |   |   |   |   |   Cluster <= 4: Solo Daños (3.0/1.0)
|   |   |   |   |   |   |   |   |   |   |   |   Cluster > 4: Con Heridos (2.0)
|   |   |   |   |   |   |   |   |   |   |   Cluster > 5: Solo Daños (25.0/5.0)
|   |   |   |   |   |   |   |   DIA_SEMANA = FDS
|   |   |   |   |   |   |   |   |   EDAD <= 44: Con Heridos (7.0/1.0)
|   |   |   |   |   |   |   |   |   EDAD > 44: Solo Daños (7.0/1.0)
|   |   |   |   |   |   |   HORA = Anochecer
|   |   |   |   |   |   |   |   DIA_SEMANA = LABORAL
|   |   |   |   |   |   |   |   |   EDAD <= 41
|   |   |   |   |   |   |   |   |   |   Cluster <= 5: Con Heridos (12.0)
|   |   |   |   |   |   |   |   |   |   Cluster > 5
|   |   |   |   |   |   |   |   |   |   |   Cluster <= 7: Solo Daños (2.0)
|   |   |   |   |   |   |   |   |   |   |   Cluster > 7: Con Heridos (7.0)
|   |   |   |   |   |   |   |   |   EDAD > 41
|   |   |   |   |   |   |   |   |   |   Cluster <= 2: Solo Daños (5.0/1.0)
|   |   |   |   |   |   |   |   |   |   Cluster > 2: Con Heridos (11.0/5.0)
|   |   |   |   |   |   |   |   DIA_SEMANA = FDS
|   |   |   |   |   |   |   |   |   Cluster <= 1: Solo Daños (4.0)
|   |   |   |   |   |   |   |   |   Cluster > 1: Con Heridos (16.0/5.0)
|   |   |   |   |   |   |   HORA = Madrugada
|   |   |   |   |   |   |   |   Cluster <= 7: Con Heridos (30.0/4.0)
|   |   |   |   |   |   |   |   Cluster > 7
|   |   |   |   |   |   |   |   |   DIA_SEMANA = LABORAL
|   |   |   |   |   |   |   |   |   |   Cluster <= 9: Con Heridos (6.0/1.0)
|   |   |   |   |   |   |   |   |   |   Cluster > 9
|   |   |   |   |   |   |   |   |   |   |   EDAD <= 26: Con Heridos (2.0)
|   |   |   |   |   |   |   |   |   |   |   EDAD > 26: Solo Daños (4.0/1.0)
|   |   |   |   |   |   |   |   |   DIA_SEMANA = FDS
|   |   |   |   |   |   |   |   |   |   Cluster <= 8
|   |   |   |   |   |   |   |   |   |   |   EDAD <= 45: Con Heridos (2.0)
|   |   |   |   |   |   |   |   |   |   |   EDAD > 45: Solo Daños (3.0)
|   |   |   |   |   |   |   |   |   |   Cluster > 8: Con Muertos (2.0)
|   |   |   |   |   |   SEXO = SIN INFORMACION: Con Heridos (25.0/8.0)
|   |   |   |   PERSONAS IMPLICADAS > 3: Solo Daños (30901.0/5453.0)
|   |   |   TIPO LUGAR = Lote o predio: Solo Daños (667.0/43.0)
|   |   |   TIPO LUGAR = Puente
|   |   |   |   SEXO = FEMENINO
|   |   |   |   |   HORA = Mañana
|   |   |   |   |   |   EDAD <= 21: Con Heridos (2.0)
|   |   |   |   |   |   EDAD > 21: Solo Daños (16.0/1.0)
|   |   |   |   |   HORA = Tarde: Solo Daños (27.0)
|   |   |   |   |   HORA = Anochecer
|   |   |   |   |   |   PERSONAS IMPLICADAS <= 3: Solo Daños (7.0/2.0)
|   |   |   |   |   |   PERSONAS IMPLICADAS > 3: Con Heridos (4.0)
|   |   |   |   |   HORA = Madrugada
|   |   |   |   |   |   EDAD <= 46: Solo Daños (10.0)
|   |   |   |   |   |   EDAD > 46: Con Heridos (2.0)
|   |   |   |   SEXO = MASCULINO: Solo Daños (522.0/107.0)
|   |   |   |   SEXO = SIN INFORMACION
|   |   |   |   |   DIA_SEMANA = LABORAL
|   |   |   |   |   |   PERSONAS IMPLICADAS <= 3: Solo Daños (3.0)
|   |   |   |   |   |   PERSONAS IMPLICADAS > 3: Con Heridos (10.0/2.0)
|   |   |   |   |   DIA_SEMANA = FDS: Solo Daños (6.0)
|   |   |   TIPO LUGAR = Paso inferior
|   |   |   |   CHOQUE_CON = Vehiculo
|   |   |   |   |   PERSONAS IMPLICADAS <= 3
|   |   |   |   |   |   HORA = Mañana
|   |   |   |   |   |   |   SEXO = FEMENINO
|   |   |   |   |   |   |   |   EDAD <= 52: Solo Daños (3.0)
|   |   |   |   |   |   |   |   EDAD > 52: Con Heridos (2.0)
|   |   |   |   |   |   |   SEXO = MASCULINO
|   |   |   |   |   |   |   |   DIA_SEMANA = LABORAL
|   |   |   |   |   |   |   |   |   Cluster <= 4
|   |   |   |   |   |   |   |   |   |   Cluster <= 2: Solo Daños (4.0)
|   |   |   |   |   |   |   |   |   |   Cluster > 2: Con Heridos (4.0)
|   |   |   |   |   |   |   |   |   Cluster > 4: Solo Daños (8.0)
|   |   |   |   |   |   |   |   DIA_SEMANA = FDS: Solo Daños (9.0)
|   |   |   |   |   |   |   SEXO = SIN INFORMACION: Solo Daños (0.0)
|   |   |   |   |   |   HORA = Tarde
|   |   |   |   |   |   |   Cluster <= 7
|   |   |   |   |   |   |   |   EDAD <= 42
|   |   |   |   |   |   |   |   |   DIA_SEMANA = LABORAL
|   |   |   |   |   |   |   |   |   |   Cluster <= 5: Con Heridos (2.0)
|   |   |   |   |   |   |   |   |   |   Cluster > 5
|   |   |   |   |   |   |   |   |   |   |   EDAD <= 35: Con Heridos (3.0/1.0)
|   |   |   |   |   |   |   |   |   |   |   EDAD > 35: Solo Daños (2.0)
|   |   |   |   |   |   |   |   |   DIA_SEMANA = FDS: Solo Daños (8.0/2.0)
|   |   |   |   |   |   |   |   EDAD > 42: Con Heridos (7.0)
|   |   |   |   |   |   |   Cluster > 7: Solo Daños (6.0)
|   |   |   |   |   |   HORA = Anochecer: Solo Daños (7.0/1.0)
|   |   |   |   |   |   HORA = Madrugada: Solo Daños (9.0)
|   |   |   |   |   PERSONAS IMPLICADAS > 3
|   |   |   |   |   |   Cluster <= 7: Solo Daños (76.0)
|   |   |   |   |   |   Cluster > 7
|   |   |   |   |   |   |   EDAD <= 34
|   |   |   |   |   |   |   |   SEXO = FEMENINO: Solo Daños (4.0)
|   |   |   |   |   |   |   |   SEXO = MASCULINO: Con Heridos (4.0)
|   |   |   |   |   |   |   |   SEXO = SIN INFORMACION: Con Heridos (0.0)
|   |   |   |   |   |   |   EDAD > 34: Solo Daños (24.0)
|   |   |   |   CHOQUE_CON = Objeto Fijo: Con Heridos (2.0)
|   |   |   TIPO LUGAR = Peatonal / Cicloruta: Solo Daños (108.0/12.0)
|   |   |   TIPO LUGAR = Tunel: Solo Daños (7.0)
|   |   PERSONAS IMPLICADAS > 4
|   |   |   PERSONAS IMPLICADAS <= 8
|   |   |   |   PERSONAS IMPLICADAS <= 5
|   |   |   |   |   TIPO LUGAR = Intersección
|   |   |   |   |   |   Cluster <= 1
|   |   |   |   |   |   |   HORA = Mañana: Con Heridos (21.0)
|   |   |   |   |   |   |   HORA = Tarde
|   |   |   |   |   |   |   |   Cluster <= 0: Con Heridos (8.0)
|   |   |   |   |   |   |   |   Cluster > 0: Solo Daños (7.0/2.0)
|   |   |   |   |   |   |   HORA = Anochecer
|   |   |   |   |   |   |   |   DIA_SEMANA = LABORAL: Solo Daños (14.0/4.0)
|   |   |   |   |   |   |   |   DIA_SEMANA = FDS: Con Heridos (6.0)
|   |   |   |   |   |   |   HORA = Madrugada
|   |   |   |   |   |   |   |   DIA_SEMANA = LABORAL
|   |   |   |   |   |   |   |   |   EDAD <= 33: Con Heridos (2.0)
|   |   |   |   |   |   |   |   |   EDAD > 33: Con Muertos (2.0)
|   |   |   |   |   |   |   |   DIA_SEMANA = FDS: Con Heridos (13.0/2.0)
|   |   |   |   |   |   Cluster > 1: Con Heridos (259.0/13.0)
|   |   |   |   |   TIPO LUGAR = Via: Con Heridos (1113.0/281.0)
|   |   |   |   |   TIPO LUGAR = Lote o predio: Solo Daños (9.0)
|   |   |   |   |   TIPO LUGAR = Puente
|   |   |   |   |   |   DIA_SEMANA = LABORAL
|   |   |   |   |   |   |   HORA = Mañana: Con Heridos (4.0)
|   |   |   |   |   |   |   HORA = Tarde: Con Heridos (2.0)
|   |   |   |   |   |   |   HORA = Anochecer
|   |   |   |   |   |   |   |   Cluster <= 5: Con Heridos (2.0)
|   |   |   |   |   |   |   |   Cluster > 5: Solo Daños (5.0)
|   |   |   |   |   |   |   HORA = Madrugada: Solo Daños (10.0)
|   |   |   |   |   |   DIA_SEMANA = FDS: Con Heridos (5.0)
|   |   |   |   |   TIPO LUGAR = Paso inferior
|   |   |   |   |   |   Cluster <= 7: Con Muertos (2.0)
|   |   |   |   |   |   Cluster > 7: Con Heridos (5.0)
|   |   |   |   |   TIPO LUGAR = Peatonal / Cicloruta
|   |   |   |   |   |   HORA = Mañana: Solo Daños (5.0)
|   |   |   |   |   |   HORA = Tarde: Con Heridos (0.0)
|   |   |   |   |   |   HORA = Anochecer: Con Heridos (6.0)
|   |   |   |   |   |   HORA = Madrugada: Con Heridos (0.0)
|   |   |   |   |   TIPO LUGAR = Tunel: Con Heridos (0.0)
|   |   |   |   PERSONAS IMPLICADAS > 5
|   |   |   |   |   TIPO LUGAR = Intersección
|   |   |   |   |   |   Cluster <= 1
|   |   |   |   |   |   |   EDAD <= 20: Con Heridos (27.98/2.52)
|   |   |   |   |   |   |   EDAD > 20
|   |   |   |   |   |   |   |   HORA = Mañana
|   |   |   |   |   |   |   |   |   SEXO = FEMENINO
|   |   |   |   |   |   |   |   |   |   EDAD <= 35: Solo Daños (9.0)
|   |   |   |   |   |   |   |   |   |   EDAD > 35
|   |   |   |   |   |   |   |   |   |   |   DIA_SEMANA = LABORAL
|   |   |   |   |   |   |   |   |   |   |   |   EDAD <= 45: Con Heridos (2.0)
|   |   |   |   |   |   |   |   |   |   |   |   EDAD > 45: Solo Daños (2.0)
|   |   |   |   |   |   |   |   |   |   |   DIA_SEMANA = FDS: Con Heridos (2.0)
|   |   |   |   |   |   |   |   |   SEXO = MASCULINO
|   |   |   |   |   |   |   |   |   |   EDAD <= 68
|   |   |   |   |   |   |   |   |   |   |   DIA_SEMANA = LABORAL
|   |   |   |   |   |   |   |   |   |   |   |   Cluster <= 0: Solo Daños (50.0/20.0)
|   |   |   |   |   |   |   |   |   |   |   |   Cluster > 0
|   |   |   |   |   |   |   |   |   |   |   |   |   PERSONAS IMPLICADAS <= 7: Con Heridos (47.0/16.0)
|   |   |   |   |   |   |   |   |   |   |   |   |   PERSONAS IMPLICADAS > 7
|   |   |   |   |   |   |   |   |   |   |   |   |   |   EDAD <= 47: Con Heridos (12.0)
|   |   |   |   |   |   |   |   |   |   |   |   |   |   EDAD > 47: Solo Daños (4.0)
|   |   |   |   |   |   |   |   |   |   |   DIA_SEMANA = FDS
|   |   |   |   |   |   |   |   |   |   |   |   EDAD <= 33
|   |   |   |   |   |   |   |   |   |   |   |   |   EDAD <= 29: Con Heridos (12.0/3.0)
|   |   |   |   |   |   |   |   |   |   |   |   |   EDAD > 29: Solo Daños (10.0)
|   |   |   |   |   |   |   |   |   |   |   |   EDAD > 33: Con Heridos (26.0)
|   |   |   |   |   |   |   |   |   |   EDAD > 68: Solo Daños (6.0)
|   |   |   |   |   |   |   |   |   SEXO = SIN INFORMACION: Con Heridos (15.4)
|   |   |   |   |   |   |   |   HORA = Tarde
|   |   |   |   |   |   |   |   |   SEXO = FEMENINO
|   |   |   |   |   |   |   |   |   |   Cluster <= 0
|   |   |   |   |   |   |   |   |   |   |   EDAD <= 42: Con Heridos (2.0)
|   |   |   |   |   |   |   |   |   |   |   EDAD > 42: Con Muertos (2.0)
|   |   |   |   |   |   |   |   |   |   Cluster > 0: Con Heridos (15.0/2.0)
|   |   |   |   |   |   |   |   |   SEXO = MASCULINO
|   |   |   |   |   |   |   |   |   |   Cluster <= 0
|   |   |   |   |   |   |   |   |   |   |   EDAD <= 53
|   |   |   |   |   |   |   |   |   |   |   |   EDAD <= 46
|   |   |   |   |   |   |   |   |   |   |   |   |   DIA_SEMANA = LABORAL
|   |   |   |   |   |   |   |   |   |   |   |   |   |   PERSONAS IMPLICADAS <= 7
|   |   |   |   |   |   |   |   |   |   |   |   |   |   |   EDAD <= 25: Con Heridos (10.0)
|   |   |   |   |   |   |   |   |   |   |   |   |   |   |   EDAD > 25
|   |   |   |   |   |   |   |   |   |   |   |   |   |   |   |   EDAD <= 27: Solo Daños (7.0/1.0)
|   |   |   |   |   |   |   |   |   |   |   |   |   |   |   |   EDAD > 27
|   |   |   |   |   |   |   |   |   |   |   |   |   |   |   |   |   EDAD <= 40: Con Heridos (27.0/3.0)
|   |   |   |   |   |   |   |   |   |   |   |   |   |   |   |   |   EDAD > 40
|   |   |   |   |   |   |   |   |   |   |   |   |   |   |   |   |   |   EDAD <= 41: Solo Daños (3.0)
|   |   |   |   |   |   |   |   |   |   |   |   |   |   |   |   |   |   EDAD > 41
|   |   |   |   |   |   |   |   |   |   |   |   |   |   |   |   |   |   |   EDAD <= 44: Con Heridos (7.0/2.0)
|   |   |   |   |   |   |   |   |   |   |   |   |   |   |   |   |   |   |   EDAD > 44: Solo Daños (2.0)
|   |   |   |   |   |   |   |   |   |   |   |   |   |   PERSONAS IMPLICADAS > 7: Con Heridos (10.0)
|   |   |   |   |   |   |   |   |   |   |   |   |   DIA_SEMANA = FDS
|   |   |   |   |   |   |   |   |   |   |   |   |   |   PERSONAS IMPLICADAS <= 7: Solo Daños (4.0/1.0)
|   |   |   |   |   |   |   |   |   |   |   |   |   |   PERSONAS IMPLICADAS > 7
|   |   |   |   |   |   |   |   |   |   |   |   |   |   |   EDAD <= 34
|   |   |   |   |   |   |   |   |   |   |   |   |   |   |   |   EDAD <= 26: Con Heridos (2.0)
|   |   |   |   |   |   |   |   |   |   |   |   |   |   |   |   EDAD > 26: Solo Daños (4.0)
|   |   |   |   |   |   |   |   |   |   |   |   |   |   |   EDAD > 34: Con Heridos (4.0)
|   |   |   |   |   |   |   |   |   |   |   |   EDAD > 46: Con Heridos (19.0/1.0)
|   |   |   |   |   |   |   |   |   |   |   EDAD > 53
|   |   |   |   |   |   |   |   |   |   |   |   DIA_SEMANA = LABORAL: Solo Daños (8.0)
|   |   |   |   |   |   |   |   |   |   |   |   DIA_SEMANA = FDS: Con Heridos (4.0)
|   |   |   |   |   |   |   |   |   |   Cluster > 0
|   |   |   |   |   |   |   |   |   |   |   EDAD <= 38
|   |   |   |   |   |   |   |   |   |   |   |   DIA_SEMANA = LABORAL
|   |   |   |   |   |   |   |   |   |   |   |   |   EDAD <= 37: Con Heridos (32.0/6.0)
|   |   |   |   |   |   |   |   |   |   |   |   |   EDAD > 37: Solo Daños (4.0)
|   |   |   |   |   |   |   |   |   |   |   |   DIA_SEMANA = FDS
|   |   |   |   |   |   |   |   |   |   |   |   |   PERSONAS IMPLICADAS <= 6: Solo Daños (6.0)
|   |   |   |   |   |   |   |   |   |   |   |   |   PERSONAS IMPLICADAS > 6: Con Heridos (2.0)
|   |   |   |   |   |   |   |   |   |   |   EDAD > 38: Con Heridos (52.0)
|   |   |   |   |   |   |   |   |   SEXO = SIN INFORMACION
|   |   |   |   |   |   |   |   |   |   DIA_SEMANA = LABORAL: Con Heridos (12.51/4.81)
|   |   |   |   |   |   |   |   |   |   DIA_SEMANA = FDS: Solo Daños (4.81/0.96)
|   |   |   |   |   |   |   |   HORA = Anochecer
|   |   |   |   |   |   |   |   |   Cluster <= 0
|   |   |   |   |   |   |   |   |   |   DIA_SEMANA = LABORAL: Con Heridos (51.78/12.0)
|   |   |   |   |   |   |   |   |   |   DIA_SEMANA = FDS
|   |   |   |   |   |   |   |   |   |   |   EDAD <= 55: Con Heridos (22.0/3.0)
|   |   |   |   |   |   |   |   |   |   |   EDAD > 55: Solo Daños (3.0)
|   |   |   |   |   |   |   |   |   Cluster > 0
|   |   |   |   |   |   |   |   |   |   EDAD <= 28: Solo Daños (20.13/3.0)
|   |   |   |   |   |   |   |   |   |   EDAD > 28
|   |   |   |   |   |   |   |   |   |   |   SEXO = FEMENINO: Con Heridos (3.0)
|   |   |   |   |   |   |   |   |   |   |   SEXO = MASCULINO
|   |   |   |   |   |   |   |   |   |   |   |   EDAD <= 58: Con Heridos (40.0/7.0)
|   |   |   |   |   |   |   |   |   |   |   |   EDAD > 58: Solo Daños (3.0)
|   |   |   |   |   |   |   |   |   |   |   SEXO = SIN INFORMACION: Solo Daños (2.72)
|   |   |   |   |   |   |   |   HORA = Madrugada
|   |   |   |   |   |   |   |   |   PERSONAS IMPLICADAS <= 6
|   |   |   |   |   |   |   |   |   |   EDAD <= 30: Con Heridos (27.29)
|   |   |   |   |   |   |   |   |   |   EDAD > 30
|   |   |   |   |   |   |   |   |   |   |   EDAD <= 49
|   |   |   |   |   |   |   |   |   |   |   |   EDAD <= 32: Solo Daños (3.15/0.15)
|   |   |   |   |   |   |   |   |   |   |   |   EDAD > 32
|   |   |   |   |   |   |   |   |   |   |   |   |   DIA_SEMANA = LABORAL
|   |   |   |   |   |   |   |   |   |   |   |   |   |   Cluster <= 0
|   |   |   |   |   |   |   |   |   |   |   |   |   |   |   EDAD <= 38: Con Heridos (6.35)
|   |   |   |   |   |   |   |   |   |   |   |   |   |   |   EDAD > 38
|   |   |   |   |   |   |   |   |   |   |   |   |   |   |   |   EDAD <= 39: Solo Daños (3.17/0.17)
|   |   |   |   |   |   |   |   |   |   |   |   |   |   |   |   EDAD > 39
|   |   |   |   |   |   |   |   |   |   |   |   |   |   |   |   |   EDAD <= 42: Con Heridos (6.35)
|   |   |   |   |   |   |   |   |   |   |   |   |   |   |   |   |   EDAD > 42: Solo Daños (8.47/2.47)
|   |   |   |   |   |   |   |   |   |   |   |   |   |   Cluster > 0: Con Heridos (5.0)
|   |   |   |   |   |   |   |   |   |   |   |   |   DIA_SEMANA = FDS
|   |   |   |   |   |   |   |   |   |   |   |   |   |   Cluster <= 0: Con Heridos (9.0)
|   |   |   |   |   |   |   |   |   |   |   |   |   |   Cluster > 0: Solo Daños (8.89/2.89)
|   |   |   |   |   |   |   |   |   |   |   EDAD > 49: Con Heridos (24.14)
|   |   |   |   |   |   |   |   |   PERSONAS IMPLICADAS > 6: Con Heridos (31.85)
|   |   |   |   |   |   Cluster > 1
|   |   |   |   |   |   |   Cluster <= 8
|   |   |   |   |   |   |   |   Cluster <= 6
|   |   |   |   |   |   |   |   |   Cluster <= 5
|   |   |   |   |   |   |   |   |   |   EDAD <= 59
|   |   |   |   |   |   |   |   |   |   |   Cluster <= 4
|   |   |   |   |   |   |   |   |   |   |   |   PERSONAS IMPLICADAS <= 7
|   |   |   |   |   |   |   |   |   |   |   |   |   SEXO = FEMENINO
|   |   |   |   |   |   |   |   |   |   |   |   |   |   EDAD <= 49: Con Heridos (46.0/2.0)
|   |   |   |   |   |   |   |   |   |   |   |   |   |   EDAD > 49
|   |   |   |   |   |   |   |   |   |   |   |   |   |   |   HORA = Mañana: Solo Daños (5.0)
|   |   |   |   |   |   |   |   |   |   |   |   |   |   |   HORA = Tarde: Con Heridos (4.0)
|   |   |   |   |   |   |   |   |   |   |   |   |   |   |   HORA = Anochecer: Solo Daños (0.0)
|   |   |   |   |   |   |   |   |   |   |   |   |   |   |   HORA = Madrugada: Solo Daños (0.0)
|   |   |   |   |   |   |   |   |   |   |   |   |   SEXO = MASCULINO
|   |   |   |   |   |   |   |   |   |   |   |   |   |   Cluster <= 2
|   |   |   |   |   |   |   |   |   |   |   |   |   |   |   HORA = Mañana
|   |   |   |   |   |   |   |   |   |   |   |   |   |   |   |   EDAD <= 46
|   |   |   |   |   |   |   |   |   |   |   |   |   |   |   |   |   EDAD <= 41
|   |   |   |   |   |   |   |   |   |   |   |   |   |   |   |   |   |   EDAD <= 31
|   |   |   |   |   |   |   |   |   |   |   |   |   |   |   |   |   |   |   EDAD <= 27: Con Heridos (5.0)
|   |   |   |   |   |   |   |   |   |   |   |   |   |   |   |   |   |   |   EDAD > 27: Solo Daños (5.0/1.0)
|   |   |   |   |   |   |   |   |   |   |   |   |   |   |   |   |   |   EDAD > 31: Con Heridos (11.0/2.0)
|   |   |   |   |   |   |   |   |   |   |   |   |   |   |   |   |   EDAD > 41: Solo Daños (5.0)
|   |   |   |   |   |   |   |   |   |   |   |   |   |   |   |   EDAD > 46: Con Heridos (11.0)
|   |   |   |   |   |   |   |   |   |   |   |   |   |   |   HORA = Tarde
|   |   |   |   |   |   |   |   |   |   |   |   |   |   |   |   EDAD <= 43
|   |   |   |   |   |   |   |   |   |   |   |   |   |   |   |   |   EDAD <= 31
|   |   |   |   |   |   |   |   |   |   |   |   |   |   |   |   |   |   DIA_SEMANA = LABORAL
|   |   |   |   |   |   |   |   |   |   |   |   |   |   |   |   |   |   |   EDAD <= 22: Con Heridos (2.0)
|   |   |   |   |   |   |   |   |   |   |   |   |   |   |   |   |   |   |   EDAD > 22
|   |   |   |   |   |   |   |   |   |   |   |   |   |   |   |   |   |   |   |   EDAD <= 24
|   |   |   |   |   |   |   |   |   |   |   |   |   |   |   |   |   |   |   |   |   EDAD <= 23: Solo Daños (3.0)
|   |   |   |   |   |   |   |   |   |   |   |   |   |   |   |   |   |   |   |   |   EDAD > 23: Con Muertos (2.0)
|   |   |   |   |   |   |   |   |   |   |   |   |   |   |   |   |   |   |   |   EDAD > 24
|   |   |   |   |   |   |   |   |   |   |   |   |   |   |   |   |   |   |   |   |   EDAD <= 28
|   |   |   |   |   |   |   |   |   |   |   |   |   |   |   |   |   |   |   |   |   |   EDAD <= 25: Solo Daños (2.0)
|   |   |   |   |   |   |   |   |   |   |   |   |   |   |   |   |   |   |   |   |   |   EDAD > 25: Con Heridos (2.0)
|   |   |   |   |   |   |   |   |   |   |   |   |   |   |   |   |   |   |   |   |   EDAD > 28: Solo Daños (3.0)
|   |   |   |   |   |   |   |   |   |   |   |   |   |   |   |   |   |   DIA_SEMANA = FDS: Con Heridos (2.0)
|   |   |   |   |   |   |   |   |   |   |   |   |   |   |   |   |   EDAD > 31: Con Heridos (12.0/2.0)
|   |   |   |   |   |   |   |   |   |   |   |   |   |   |   |   EDAD > 43
|   |   |   |   |   |   |   |   |   |   |   |   |   |   |   |   |   DIA_SEMANA = LABORAL
|   |   |   |   |   |   |   |   |   |   |   |   |   |   |   |   |   |   EDAD <= 51: Solo Daños (16.0/2.0)
|   |   |   |   |   |   |   |   |   |   |   |   |   |   |   |   |   |   EDAD > 51: Con Heridos (3.0)
|   |   |   |   |   |   |   |   |   |   |   |   |   |   |   |   |   DIA_SEMANA = FDS: Solo Daños (3.0)
|   |   |   |   |   |   |   |   |   |   |   |   |   |   |   HORA = Anochecer
|   |   |   |   |   |   |   |   |   |   |   |   |   |   |   |   DIA_SEMANA = LABORAL
|   |   |   |   |   |   |   |   |   |   |   |   |   |   |   |   |   EDAD <= 30
|   |   |   |   |   |   |   |   |   |   |   |   |   |   |   |   |   |   EDAD <= 25: Solo Daños (7.0)
|   |   |   |   |   |   |   |   |   |   |   |   |   |   |   |   |   |   EDAD > 25: Con Heridos (2.0)
|   |   |   |   |   |   |   |   |   |   |   |   |   |   |   |   |   EDAD > 30: Solo Daños (17.0)
|   |   |   |   |   |   |   |   |   |   |   |   |   |   |   |   DIA_SEMANA = FDS
|   |   |   |   |   |   |   |   |   |   |   |   |   |   |   |   |   EDAD <= 40: Con Heridos (5.0)
|   |   |   |   |   |   |   |   |   |   |   |   |   |   |   |   |   EDAD > 40: Solo Daños (3.0/1.0)
|   |   |   |   |   |   |   |   |   |   |   |   |   |   |   HORA = Madrugada
|   |   |   |   |   |   |   |   |   |   |   |   |   |   |   |   DIA_SEMANA = LABORAL: Con Heridos (10.0)
|   |   |   |   |   |   |   |   |   |   |   |   |   |   |   |   DIA_SEMANA = FDS
|   |   |   |   |   |   |   |   |   |   |   |   |   |   |   |   |   EDAD <= 35: Solo Daños (3.0)
|   |   |   |   |   |   |   |   |   |   |   |   |   |   |   |   |   EDAD > 35: Con Heridos (2.0)
|   |   |   |   |   |   |   |   |   |   |   |   |   |   Cluster > 2
|   |   |   |   |   |   |   |   |   |   |   |   |   |   |   HORA = Mañana
|   |   |   |   |   |   |   |   |   |   |   |   |   |   |   |   Cluster <= 3
|   |   |   |   |   |   |   |   |   |   |   |   |   |   |   |   |   EDAD <= 25
|   |   |   |   |   |   |   |   |   |   |   |   |   |   |   |   |   |   EDAD <= 23: Solo Daños (2.0)
|   |   |   |   |   |   |   |   |   |   |   |   |   |   |   |   |   |   EDAD > 23: Con Muertos (2.0)
|   |   |   |   |   |   |   |   |   |   |   |   |   |   |   |   |   EDAD > 25
|   |   |   |   |   |   |   |   |   |   |   |   |   |   |   |   |   |   EDAD <= 33: Con Heridos (37.0/8.0)
|   |   |   |   |   |   |   |   |   |   |   |   |   |   |   |   |   |   EDAD > 33
|   |   |   |   |   |   |   |   |   |   |   |   |   |   |   |   |   |   |   EDAD <= 46: Solo Daños (26.0/4.0)
|   |   |   |   |   |   |   |   |   |   |   |   |   |   |   |   |   |   |   EDAD > 46
|   |   |   |   |   |   |   |   |   |   |   |   |   |   |   |   |   |   |   |   EDAD <= 54
|   |   |   |   |   |   |   |   |   |   |   |   |   |   |   |   |   |   |   |   |   EDAD <= 49: Con Heridos (6.0)
|   |   |   |   |   |   |   |   |   |   |   |   |   |   |   |   |   |   |   |   |   EDAD > 49: Solo Daños (3.0)
|   |   |   |   |   |   |   |   |   |   |   |   |   |   |   |   |   |   |   |   EDAD > 54: Con Heridos (6.0)
|   |   |   |   |   |   |   |   |   |   |   |   |   |   |   |   Cluster > 3: Con Heridos (66.0/11.0)
|   |   |   |   |   |   |   |   |   |   |   |   |   |   |   HORA = Tarde
|   |   |   |   |   |   |   |   |   |   |   |   |   |   |   |   EDAD <= 20: Solo Daños (7.0)
|   |   |   |   |   |   |   |   |   |   |   |   |   |   |   |   EDAD > 20
|   |   |   |   |   |   |   |   |   |   |   |   |   |   |   |   |   CHOQUE_CON = Vehiculo
|   |   |   |   |   |   |   |   |   |   |   |   |   |   |   |   |   |   DIA_SEMANA = LABORAL
|   |   |   |   |   |   |   |   |   |   |   |   |   |   |   |   |   |   |   Cluster <= 3
|   |   |   |   |   |   |   |   |   |   |   |   |   |   |   |   |   |   |   |   EDAD <= 35: Con Heridos (18.0/2.0)
|   |   |   |   |   |   |   |   |   |   |   |   |   |   |   |   |   |   |   |   EDAD > 35: Solo Daños (26.0/12.0)
|   |   |   |   |   |   |   |   |   |   |   |   |   |   |   |   |   |   |   Cluster > 3
|   |   |   |   |   |   |   |   |   |   |   |   |   |   |   |   |   |   |   |   EDAD <= 23: Solo Daños (8.0/1.0)
|   |   |   |   |   |   |   |   |   |   |   |   |   |   |   |   |   |   |   |   EDAD > 23: Con Heridos (59.0/20.0)
|   |   |   |   |   |   |   |   |   |   |   |   |   |   |   |   |   |   DIA_SEMANA = FDS
|   |   |   |   |   |   |   |   |   |   |   |   |   |   |   |   |   |   |   Cluster <= 3: Con Heridos (11.0)
|   |   |   |   |   |   |   |   |   |   |   |   |   |   |   |   |   |   |   Cluster > 3
|   |   |   |   |   |   |   |   |   |   |   |   |   |   |   |   |   |   |   |   EDAD <= 43
|   |   |   |   |   |   |   |   |   |   |   |   |   |   |   |   |   |   |   |   |   EDAD <= 31: Con Heridos (2.0)
|   |   |   |   |   |   |   |   |   |   |   |   |   |   |   |   |   |   |   |   |   EDAD > 31: Solo Daños (5.0/1.0)
|   |   |   |   |   |   |   |   |   |   |   |   |   |   |   |   |   |   |   |   EDAD > 43: Con Heridos (5.0)
|   |   |   |   |   |   |   |   |   |   |   |   |   |   |   |   |   CHOQUE_CON = Objeto Fijo: Solo Daños (2.0)
|   |   |   |   |   |   |   |   |   |   |   |   |   |   |   HORA = Anochecer
|   |   |   |   |   |   |   |   |   |   |   |   |   |   |   |   EDAD <= 23
|   |   |   |   |   |   |   |   |   |   |   |   |   |   |   |   |   EDAD <= 21: Con Heridos (4.0)
|   |   |   |   |   |   |   |   |   |   |   |   |   |   |   |   |   EDAD > 21: Con Muertos (3.0)
|   |   |   |   |   |   |   |   |   |   |   |   |   |   |   |   EDAD > 23: Con Heridos (37.0)
|   |   |   |   |   |   |   |   |   |   |   |   |   |   |   HORA = Madrugada
|   |   |   |   |   |   |   |   |   |   |   |   |   |   |   |   DIA_SEMANA = LABORAL
|   |   |   |   |   |   |   |   |   |   |   |   |   |   |   |   |   EDAD <= 39
|   |   |   |   |   |   |   |   |   |   |   |   |   |   |   |   |   |   CHOQUE_CON = Vehiculo
|   |   |   |   |   |   |   |   |   |   |   |   |   |   |   |   |   |   |   PERSONAS IMPLICADAS <= 6
|   |   |   |   |   |   |   |   |   |   |   |   |   |   |   |   |   |   |   |   Cluster <= 3: Solo Daños (14.0/3.0)
|   |   |   |   |   |   |   |   |   |   |   |   |   |   |   |   |   |   |   |   Cluster > 3
|   |   |   |   |   |   |   |   |   |   |   |   |   |   |   |   |   |   |   |   |   EDAD <= 20: Con Heridos (2.0)
|   |   |   |   |   |   |   |   |   |   |   |   |   |   |   |   |   |   |   |   |   EDAD > 20
|   |   |   |   |   |   |   |   |   |   |   |   |   |   |   |   |   |   |   |   |   |   EDAD <= 27: Solo Daños (7.0)
|   |   |   |   |   |   |   |   |   |   |   |   |   |   |   |   |   |   |   |   |   |   EDAD > 27
|   |   |   |   |   |   |   |   |   |   |   |   |   |   |   |   |   |   |   |   |   |   |   EDAD <= 33: Con Heridos (4.0)
|   |   |   |   |   |   |   |   |   |   |   |   |   |   |   |   |   |   |   |   |   |   |   EDAD > 33: Solo Daños (2.0)
|   |   |   |   |   |   |   |   |   |   |   |   |   |   |   |   |   |   |   PERSONAS IMPLICADAS > 6: Con Heridos (2.0)
|   |   |   |   |   |   |   |   |   |   |   |   |   |   |   |   |   |   CHOQUE_CON = Objeto Fijo: Con Heridos (2.0)
|   |   |   |   |   |   |   |   |   |   |   |   |   |   |   |   |   EDAD > 39
|   |   |   |   |   |   |   |   |   |   |   |   |   |   |   |   |   |   EDAD <= 48: Con Heridos (26.0)
|   |   |   |   |   |   |   |   |   |   |   |   |   |   |   |   |   |   EDAD > 48
|   |   |   |   |   |   |   |   |   |   |   |   |   |   |   |   |   |   |   EDAD <= 53
|   |   |   |   |   |   |   |   |   |   |   |   |   |   |   |   |   |   |   |   EDAD <= 51
|   |   |   |   |   |   |   |   |   |   |   |   |   |   |   |   |   |   |   |   |   Cluster <= 3: Solo Daños (9.0/2.0)
|   |   |   |   |   |   |   |   |   |   |   |   |   |   |   |   |   |   |   |   |   Cluster > 3: Con Heridos (2.0)
|   |   |   |   |   |   |   |   |   |   |   |   |   |   |   |   |   |   |   |   EDAD > 51: Solo Daños (3.0)
|   |   |   |   |   |   |   |   |   |   |   |   |   |   |   |   |   |   |   EDAD > 53: Con Heridos (8.0)
|   |   |   |   |   |   |   |   |   |   |   |   |   |   |   |   DIA_SEMANA = FDS
|   |   |   |   |   |   |   |   |   |   |   |   |   |   |   |   |   EDAD <= 49
|   |   |   |   |   |   |   |   |   |   |   |   |   |   |   |   |   |   EDAD <= 32: Con Heridos (5.0)
|   |   |   |   |   |   |   |   |   |   |   |   |   |   |   |   |   |   EDAD > 32
|   |   |   |   |   |   |   |   |   |   |   |   |   |   |   |   |   |   |   EDAD <= 41: Solo Daños (2.0)
|   |   |   |   |   |   |   |   |   |   |   |   |   |   |   |   |   |   |   EDAD > 41: Con Heridos (2.0)
|   |   |   |   |   |   |   |   |   |   |   |   |   |   |   |   |   EDAD > 49
|   |   |   |   |   |   |   |   |   |   |   |   |   |   |   |   |   |   EDAD <= 53: Con Muertos (2.0)
|   |   |   |   |   |   |   |   |   |   |   |   |   |   |   |   |   |   EDAD > 53: Solo Daños (2.0)
|   |   |   |   |   |   |   |   |   |   |   |   |   SEXO = SIN INFORMACION: Con Heridos (36.32/3.73)
|   |   |   |   |   |   |   |   |   |   |   |   PERSONAS IMPLICADAS > 7
|   |   |   |   |   |   |   |   |   |   |   |   |   DIA_SEMANA = LABORAL
|   |   |   |   |   |   |   |   |   |   |   |   |   |   HORA = Mañana
|   |   |   |   |   |   |   |   |   |   |   |   |   |   |   SEXO = FEMENINO
|   |   |   |   |   |   |   |   |   |   |   |   |   |   |   |   Cluster <= 3: Solo Daños (8.0)
|   |   |   |   |   |   |   |   |   |   |   |   |   |   |   |   Cluster > 3: Con Heridos (2.0)
|   |   |   |   |   |   |   |   |   |   |   |   |   |   |   SEXO = MASCULINO
|   |   |   |   |   |   |   |   |   |   |   |   |   |   |   |   EDAD <= 32: Con Heridos (9.0)
|   |   |   |   |   |   |   |   |   |   |   |   |   |   |   |   EDAD > 32
|   |   |   |   |   |   |   |   |   |   |   |   |   |   |   |   |   EDAD <= 40
|   |   |   |   |   |   |   |   |   |   |   |   |   |   |   |   |   |   Cluster <= 3
|   |   |   |   |   |   |   |   |   |   |   |   |   |   |   |   |   |   |   EDAD <= 36: Con Heridos (2.0)
|   |   |   |   |   |   |   |   |   |   |   |   |   |   |   |   |   |   |   EDAD > 36: Solo Daños (4.0)
|   |   |   |   |   |   |   |   |   |   |   |   |   |   |   |   |   |   Cluster > 3: Solo Daños (6.0)
|   |   |   |   |   |   |   |   |   |   |   |   |   |   |   |   |   EDAD > 40: Con Heridos (13.0/2.0)
|   |   |   |   |   |   |   |   |   |   |   |   |   |   |   SEXO = SIN INFORMACION: Solo Daños (3.73)
|   |   |   |   |   |   |   |   |   |   |   |   |   |   HORA = Tarde
|   |   |   |   |   |   |   |   |   |   |   |   |   |   |   Cluster <= 3
|   |   |   |   |   |   |   |   |   |   |   |   |   |   |   |   Cluster <= 2
|   |   |   |   |   |   |   |   |   |   |   |   |   |   |   |   |   EDAD <= 58
|   |   |   |   |   |   |   |   |   |   |   |   |   |   |   |   |   |   EDAD <= 45: Con Heridos (2.0)
|   |   |   |   |   |   |   |   |   |   |   |   |   |   |   |   |   |   EDAD > 45
|   |   |   |   |   |   |   |   |   |   |   |   |   |   |   |   |   |   |   EDAD <= 54: Solo Daños (4.0)
|   |   |   |   |   |   |   |   |   |   |   |   |   |   |   |   |   |   |   EDAD > 54: Con Heridos (2.0)
|   |   |   |   |   |   |   |   |   |   |   |   |   |   |   |   |   EDAD > 58: Con Muertos (2.0)
|   |   |   |   |   |   |   |   |   |   |   |   |   |   |   |   Cluster > 2
|   |   |   |   |   |   |   |   |   |   |   |   |   |   |   |   |   EDAD <= 26: Con Heridos (6.0)
|   |   |   |   |   |   |   |   |   |   |   |   |   |   |   |   |   EDAD > 26
|   |   |   |   |   |   |   |   |   |   |   |   |   |   |   |   |   |   EDAD <= 44: Con Muertos (4.0)
|   |   |   |   |   |   |   |   |   |   |   |   |   |   |   |   |   |   EDAD > 44: Con Heridos (2.0)
|   |   |   |   |   |   |   |   |   |   |   |   |   |   |   Cluster > 3: Con Heridos (16.0)
|   |   |   |   |   |   |   |   |   |   |   |   |   |   HORA = Anochecer
|   |   |   |   |   |   |   |   |   |   |   |   |   |   |   Cluster <= 3: Con Heridos (7.45)
|   |   |   |   |   |   |   |   |   |   |   |   |   |   |   Cluster > 3
|   |   |   |   |   |   |   |   |   |   |   |   |   |   |   |   SEXO = FEMENINO: Con Heridos (0.0)
|   |   |   |   |   |   |   |   |   |   |   |   |   |   |   |   SEXO = MASCULINO
|   |   |   |   |   |   |   |   |   |   |   |   |   |   |   |   |   EDAD <= 36
|   |   |   |   |   |   |   |   |   |   |   |   |   |   |   |   |   |   EDAD <= 32: Con Heridos (2.0)
|   |   |   |   |   |   |   |   |   |   |   |   |   |   |   |   |   |   EDAD > 32: Solo Daños (4.0)
|   |   |   |   |   |   |   |   |   |   |   |   |   |   |   |   |   EDAD > 36: Con Heridos (6.0)
|   |   |   |   |   |   |   |   |   |   |   |   |   |   |   |   SEXO = SIN INFORMACION: Solo Daños (3.73)
|   |   |   |   |   |   |   |   |   |   |   |   |   |   HORA = Madrugada
|   |   |   |   |   |   |   |   |   |   |   |   |   |   |   Cluster <= 2: Con Heridos (9.59)
|   |   |   |   |   |   |   |   |   |   |   |   |   |   |   Cluster > 2
|   |   |   |   |   |   |   |   |   |   |   |   |   |   |   |   Cluster <= 3: Solo Daños (7.73)
|   |   |   |   |   |   |   |   |   |   |   |   |   |   |   |   Cluster > 3
|   |   |   |   |   |   |   |   |   |   |   |   |   |   |   |   |   EDAD <= 33
|   |   |   |   |   |   |   |   |   |   |   |   |   |   |   |   |   |   EDAD <= 32: Con Heridos (3.6/0.53)
|   |   |   |   |   |   |   |   |   |   |   |   |   |   |   |   |   |   EDAD > 32
|   |   |   |   |   |   |   |   |   |   |   |   |   |   |   |   |   |   |   SEXO = FEMENINO: Solo Daños (0.0)
|   |   |   |   |   |   |   |   |   |   |   |   |   |   |   |   |   |   |   SEXO = MASCULINO: Solo Daños (4.0)
|   |   |   |   |   |   |   |   |   |   |   |   |   |   |   |   |   |   |   SEXO = SIN INFORMACION: Con Heridos (3.19/1.06)
|   |   |   |   |   |   |   |   |   |   |   |   |   |   |   |   |   EDAD > 33: Con Heridos (14.39/2.13)
|   |   |   |   |   |   |   |   |   |   |   |   |   DIA_SEMANA = FDS
|   |   |   |   |   |   |   |   |   |   |   |   |   |   HORA = Mañana
|   |   |   |   |   |   |   |   |   |   |   |   |   |   |   Cluster <= 3
|   |   |   |   |   |   |   |   |   |   |   |   |   |   |   |   EDAD <= 42: Con Heridos (4.0)
|   |   |   |   |   |   |   |   |   |   |   |   |   |   |   |   EDAD > 42: Solo Daños (4.0)
|   |   |   |   |   |   |   |   |   |   |   |   |   |   |   Cluster > 3: Solo Daños (8.0)
|   |   |   |   |   |   |   |   |   |   |   |   |   |   HORA = Tarde
|   |   |   |   |   |   |   |   |   |   |   |   |   |   |   Cluster <= 3: Solo Daños (19.45)
|   |   |   |   |   |   |   |   |   |   |   |   |   |   |   Cluster > 3
|   |   |   |   |   |   |   |   |   |   |   |   |   |   |   |   EDAD <= 25: Solo Daños (4.0)
|   |   |   |   |   |   |   |   |   |   |   |   |   |   |   |   EDAD > 25: Con Muertos (4.0)
|   |   |   |   |   |   |   |   |   |   |   |   |   |   HORA = Anochecer
|   |   |   |   |   |   |   |   |   |   |   |   |   |   |   Cluster <= 3
|   |   |   |   |   |   |   |   |   |   |   |   |   |   |   |   EDAD <= 27: Con Heridos (5.86/1.4)
|   |   |   |   |   |   |   |   |   |   |   |   |   |   |   |   EDAD > 27
|   |   |   |   |   |   |   |   |   |   |   |   |   |   |   |   |   EDAD <= 36: Solo Daños (11.73/0.93)
|   |   |   |   |   |   |   |   |   |   |   |   |   |   |   |   |   EDAD > 36: Con Heridos (5.86/1.4)
|   |   |   |   |   |   |   |   |   |   |   |   |   |   |   Cluster > 3: Con Heridos (9.86)
|   |   |   |   |   |   |   |   |   |   |   |   |   |   HORA = Madrugada
|   |   |   |   |   |   |   |   |   |   |   |   |   |   |   Cluster <= 3: Con Heridos (2.0)
|   |   |   |   |   |   |   |   |   |   |   |   |   |   |   Cluster > 3: Solo Daños (8.73/1.0)
|   |   |   |   |   |   |   |   |   |   |   Cluster > 4
|   |   |   |   |   |   |   |   |   |   |   |   HORA = Mañana
|   |   |   |   |   |   |   |   |   |   |   |   |   EDAD <= 29
|   |   |   |   |   |   |   |   |   |   |   |   |   |   SEXO = FEMENINO: Con Heridos (2.0)
|   |   |   |   |   |   |   |   |   |   |   |   |   |   SEXO = MASCULINO
|   |   |   |   |   |   |   |   |   |   |   |   |   |   |   EDAD <= 24: Solo Daños (8.0/2.0)
|   |   |   |   |   |   |   |   |   |   |   |   |   |   |   EDAD > 24: Con Heridos (3.0)
|   |   |   |   |   |   |   |   |   |   |   |   |   |   SEXO = SIN INFORMACION: Con Heridos (0.0)
|   |   |   |   |   |   |   |   |   |   |   |   |   EDAD > 29: Solo Daños (32.0/3.0)
|   |   |   |   |   |   |   |   |   |   |   |   HORA = Tarde
|   |   |   |   |   |   |   |   |   |   |   |   |   DIA_SEMANA = LABORAL
|   |   |   |   |   |   |   |   |   |   |   |   |   |   SEXO = FEMENINO
|   |   |   |   |   |   |   |   |   |   |   |   |   |   |   EDAD <= 46: Solo Daños (2.0)
|   |   |   |   |   |   |   |   |   |   |   |   |   |   |   EDAD > 46: Con Heridos (4.0)
|   |   |   |   |   |   |   |   |   |   |   |   |   |   SEXO = MASCULINO: Solo Daños (25.0/10.0)
|   |   |   |   |   |   |   |   |   |   |   |   |   |   SEXO = SIN INFORMACION: Solo Daños (0.0)
|   |   |   |   |   |   |   |   |   |   |   |   |   DIA_SEMANA = FDS: Con Heridos (2.0)
|   |   |   |   |   |   |   |   |   |   |   |   HORA = Anochecer: Con Heridos (15.86)
|   |   |   |   |   |   |   |   |   |   |   |   HORA = Madrugada: Con Heridos (15.86)
|   |   |   |   |   |   |   |   |   |   EDAD > 59
|   |   |   |   |   |   |   |   |   |   |   Cluster <= 2
|   |   |   |   |   |   |   |   |   |   |   |   DIA_SEMANA = LABORAL: Con Heridos (4.82)
|   |   |   |   |   |   |   |   |   |   |   |   DIA_SEMANA = FDS
|   |   |   |   |   |   |   |   |   |   |   |   |   HORA = Mañana: Solo Daños (0.0)
|   |   |   |   |   |   |   |   |   |   |   |   |   HORA = Tarde: Con Heridos (4.41/0.27)
|   |   |   |   |   |   |   |   |   |   |   |   |   HORA = Anochecer: Solo Daños (4.41)
|   |   |   |   |   |   |   |   |   |   |   |   |   HORA = Madrugada
|   |   |   |   |   |   |   |   |   |   |   |   |   |   EDAD <= 65: Solo Daños (3.16/0.16)
|   |   |   |   |   |   |   |   |   |   |   |   |   |   EDAD > 65: Con Heridos (2.11)
|   |   |   |   |   |   |   |   |   |   |   Cluster > 2: Con Heridos (55.15/3.92)
|   |   |   |   |   |   |   |   |   Cluster > 5
|   |   |   |   |   |   |   |   |   |   CHOQUE_CON = Vehiculo
|   |   |   |   |   |   |   |   |   |   |   SEXO = FEMENINO
|   |   |   |   |   |   |   |   |   |   |   |   HORA = Mañana: Con Heridos (4.0)
|   |   |   |   |   |   |   |   |   |   |   |   HORA = Tarde
|   |   |   |   |   |   |   |   |   |   |   |   |   EDAD <= 36: Con Heridos (4.0)
|   |   |   |   |   |   |   |   |   |   |   |   |   EDAD > 36
|   |   |   |   |   |   |   |   |   |   |   |   |   |   DIA_SEMANA = LABORAL: Solo Daños (5.0)
|   |   |   |   |   |   |   |   |   |   |   |   |   |   DIA_SEMANA = FDS: Con Heridos (2.0)
|   |   |   |   |   |   |   |   |   |   |   |   HORA = Anochecer: Con Heridos (2.0)
|   |   |   |   |   |   |   |   |   |   |   |   HORA = Madrugada: Con Heridos (0.0)
|   |   |   |   |   |   |   |   |   |   |   SEXO = MASCULINO
|   |   |   |   |   |   |   |   |   |   |   |   HORA = Mañana
|   |   |   |   |   |   |   |   |   |   |   |   |   DIA_SEMANA = LABORAL
|   |   |   |   |   |   |   |   |   |   |   |   |   |   PERSONAS IMPLICADAS <= 7
|   |   |   |   |   |   |   |   |   |   |   |   |   |   |   EDAD <= 44
|   |   |   |   |   |   |   |   |   |   |   |   |   |   |   |   EDAD <= 32: Solo Daños (2.0)
|   |   |   |   |   |   |   |   |   |   |   |   |   |   |   |   EDAD > 32
|   |   |   |   |   |   |   |   |   |   |   |   |   |   |   |   |   EDAD <= 36: Con Heridos (3.0)
|   |   |   |   |   |   |   |   |   |   |   |   |   |   |   |   |   EDAD > 36
|   |   |   |   |   |   |   |   |   |   |   |   |   |   |   |   |   |   EDAD <= 37: Solo Daños (2.0)
|   |   |   |   |   |   |   |   |   |   |   |   |   |   |   |   |   |   EDAD > 37: Con Heridos (3.0)
|   |   |   |   |   |   |   |   |   |   |   |   |   |   |   EDAD > 44: Solo Daños (10.0)
|   |   |   |   |   |   |   |   |   |   |   |   |   |   PERSONAS IMPLICADAS > 7: Con Heridos (4.0)
|   |   |   |   |   |   |   |   |   |   |   |   |   DIA_SEMANA = FDS: Solo Daños (34.0/6.0)
|   |   |   |   |   |   |   |   |   |   |   |   HORA = Tarde
|   |   |   |   |   |   |   |   |   |   |   |   |   DIA_SEMANA = LABORAL
|   |   |   |   |   |   |   |   |   |   |   |   |   |   EDAD <= 31: Solo Daños (12.0)
|   |   |   |   |   |   |   |   |   |   |   |   |   |   EDAD > 31
|   |   |   |   |   |   |   |   |   |   |   |   |   |   |   EDAD <= 33: Con Muertos (2.0)
|   |   |   |   |   |   |   |   |   |   |   |   |   |   |   EDAD > 33
|   |   |   |   |   |   |   |   |   |   |   |   |   |   |   |   EDAD <= 44
|   |   |   |   |   |   |   |   |   |   |   |   |   |   |   |   |   EDAD <= 40
|   |   |   |   |   |   |   |   |   |   |   |   |   |   |   |   |   |   EDAD <= 36
|   |   |   |   |   |   |   |   |   |   |   |   |   |   |   |   |   |   |   EDAD <= 34: Solo Daños (2.0)
|   |   |   |   |   |   |   |   |   |   |   |   |   |   |   |   |   |   |   EDAD > 34: Con Heridos (2.0)
|   |   |   |   |   |   |   |   |   |   |   |   |   |   |   |   |   |   EDAD > 36: Solo Daños (9.0)
|   |   |   |   |   |   |   |   |   |   |   |   |   |   |   |   |   EDAD > 40: Con Heridos (4.0)
|   |   |   |   |   |   |   |   |   |   |   |   |   |   |   |   EDAD > 44
|   |   |   |   |   |   |   |   |   |   |   |   |   |   |   |   |   EDAD <= 47
|   |   |   |   |   |   |   |   |   |   |   |   |   |   |   |   |   |   EDAD <= 45: Solo Daños (2.0)
|   |   |   |   |   |   |   |   |   |   |   |   |   |   |   |   |   |   EDAD > 45: Con Muertos (2.0)
|   |   |   |   |   |   |   |   |   |   |   |   |   |   |   |   |   EDAD > 47: Solo Daños (16.0/2.0)
|   |   |   |   |   |   |   |   |   |   |   |   |   DIA_SEMANA = FDS: Con Heridos (2.0)
|   |   |   |   |   |   |   |   |   |   |   |   HORA = Anochecer
|   |   |   |   |   |   |   |   |   |   |   |   |   EDAD <= 43
|   |   |   |   |   |   |   |   |   |   |   |   |   |   DIA_SEMANA = LABORAL
|   |   |   |   |   |   |   |   |   |   |   |   |   |   |   EDAD <= 36: Con Muertos (2.0)
|   |   |   |   |   |   |   |   |   |   |   |   |   |   |   EDAD > 36: Solo Daños (5.0)
|   |   |   |   |   |   |   |   |   |   |   |   |   |   DIA_SEMANA = FDS
|   |   |   |   |   |   |   |   |   |   |   |   |   |   |   EDAD <= 25: Solo Daños (3.0)
|   |   |   |   |   |   |   |   |   |   |   |   |   |   |   EDAD > 25
|   |   |   |   |   |   |   |   |   |   |   |   |   |   |   |   EDAD <= 29: Con Heridos (5.0)
|   |   |   |   |   |   |   |   |   |   |   |   |   |   |   |   EDAD > 29
|   |   |   |   |   |   |   |   |   |   |   |   |   |   |   |   |   EDAD <= 34: Solo Daños (3.0)
|   |   |   |   |   |   |   |   |   |   |   |   |   |   |   |   |   EDAD > 34: Con Heridos (2.0)
|   |   |   |   |   |   |   |   |   |   |   |   |   EDAD > 43: Con Heridos (11.0)
|   |   |   |   |   |   |   |   |   |   |   |   HORA = Madrugada
|   |   |   |   |   |   |   |   |   |   |   |   |   PERSONAS IMPLICADAS <= 6
|   |   |   |   |   |   |   |   |   |   |   |   |   |   EDAD <= 35
|   |   |   |   |   |   |   |   |   |   |   |   |   |   |   EDAD <= 31: Solo Daños (9.0/2.0)
|   |   |   |   |   |   |   |   |   |   |   |   |   |   |   EDAD > 31
|   |   |   |   |   |   |   |   |   |   |   |   |   |   |   |   EDAD <= 33: Con Muertos (2.0)
|   |   |   |   |   |   |   |   |   |   |   |   |   |   |   |   EDAD > 33: Solo Daños (2.0)
|   |   |   |   |   |   |   |   |   |   |   |   |   |   EDAD > 35
|   |   |   |   |   |   |   |   |   |   |   |   |   |   |   EDAD <= 48: Con Heridos (4.0)
|   |   |   |   |   |   |   |   |   |   |   |   |   |   |   EDAD > 48: Solo Daños (11.0/2.0)
|   |   |   |   |   |   |   |   |   |   |   |   |   PERSONAS IMPLICADAS > 6: Con Heridos (2.0)
|   |   |   |   |   |   |   |   |   |   |   SEXO = SIN INFORMACION
|   |   |   |   |   |   |   |   |   |   |   |   HORA = Mañana
|   |   |   |   |   |   |   |   |   |   |   |   |   PERSONAS IMPLICADAS <= 7: Solo Daños (2.0)
|   |   |   |   |   |   |   |   |   |   |   |   |   PERSONAS IMPLICADAS > 7: Con Heridos (2.0)
|   |   |   |   |   |   |   |   |   |   |   |   HORA = Tarde: Solo Daños (2.0)
|   |   |   |   |   |   |   |   |   |   |   |   HORA = Anochecer: Con Heridos (2.0)
|   |   |   |   |   |   |   |   |   |   |   |   HORA = Madrugada: Con Heridos (0.0)
|   |   |   |   |   |   |   |   |   |   CHOQUE_CON = Objeto Fijo
|   |   |   |   |   |   |   |   |   |   |   HORA = Mañana: Con Muertos (3.0)
|   |   |   |   |   |   |   |   |   |   |   HORA = Tarde: Con Heridos (4.0)
|   |   |   |   |   |   |   |   |   |   |   HORA = Anochecer: Con Heridos (0.0)
|   |   |   |   |   |   |   |   |   |   |   HORA = Madrugada: Con Heridos (0.0)
|   |   |   |   |   |   |   |   Cluster > 6
|   |   |   |   |   |   |   |   |   HORA = Mañana
|   |   |   |   |   |   |   |   |   |   SEXO = FEMENINO
|   |   |   |   |   |   |   |   |   |   |   PERSONAS IMPLICADAS <= 7
|   |   |   |   |   |   |   |   |   |   |   |   PERSONAS IMPLICADAS <= 6
|   |   |   |   |   |   |   |   |   |   |   |   |   EDAD <= 42: Solo Daños (13.0/1.0)
|   |   |   |   |   |   |   |   |   |   |   |   |   EDAD > 42
|   |   |   |   |   |   |   |   |   |   |   |   |   |   EDAD <= 47: Con Heridos (3.0)
|   |   |   |   |   |   |   |   |   |   |   |   |   |   EDAD > 47
|   |   |   |   |   |   |   |   |   |   |   |   |   |   |   EDAD <= 60: Solo Daños (3.0)
|   |   |   |   |   |   |   |   |   |   |   |   |   |   |   EDAD > 60: Con Heridos (2.0)
|   |   |   |   |   |   |   |   |   |   |   |   PERSONAS IMPLICADAS > 6: Con Heridos (3.0)
|   |   |   |   |   |   |   |   |   |   |   PERSONAS IMPLICADAS > 7: Con Muertos (2.0)
|   |   |   |   |   |   |   |   |   |   SEXO = MASCULINO
|   |   |   |   |   |   |   |   |   |   |   EDAD <= 49
|   |   |   |   |   |   |   |   |   |   |   |   DIA_SEMANA = LABORAL
|   |   |   |   |   |   |   |   |   |   |   |   |   EDAD <= 46
|   |   |   |   |   |   |   |   |   |   |   |   |   |   EDAD <= 39
|   |   |   |   |   |   |   |   |   |   |   |   |   |   |   EDAD <= 38: Con Heridos (65.0/18.0)
|   |   |   |   |   |   |   |   |   |   |   |   |   |   |   EDAD > 38
|   |   |   |   |   |   |   |   |   |   |   |   |   |   |   |   PERSONAS IMPLICADAS <= 7: Con Heridos (2.0)
|   |   |   |   |   |   |   |   |   |   |   |   |   |   |   |   PERSONAS IMPLICADAS > 7: Solo Daños (8.0)
|   |   |   |   |   |   |   |   |   |   |   |   |   |   EDAD > 39: Con Heridos (28.0/4.0)
|   |   |   |   |   |   |   |   |   |   |   |   |   EDAD > 46
|   |   |   |   |   |   |   |   |   |   |   |   |   |   PERSONAS IMPLICADAS <= 6: Solo Daños (8.0)
|   |   |   |   |   |   |   |   |   |   |   |   |   |   PERSONAS IMPLICADAS > 6: Con Heridos (3.0)
|   |   |   |   |   |   |   |   |   |   |   |   DIA_SEMANA = FDS
|   |   |   |   |   |   |   |   |   |   |   |   |   PERSONAS IMPLICADAS <= 7
|   |   |   |   |   |   |   |   |   |   |   |   |   |   Cluster <= 7
|   |   |   |   |   |   |   |   |   |   |   |   |   |   |   EDAD <= 34: Solo Daños (3.0)
|   |   |   |   |   |   |   |   |   |   |   |   |   |   |   EDAD > 34
|   |   |   |   |   |   |   |   |   |   |   |   |   |   |   |   EDAD <= 36: Con Heridos (2.0)
|   |   |   |   |   |   |   |   |   |   |   |   |   |   |   |   EDAD > 36: Solo Daños (3.0)
|   |   |   |   |   |   |   |   |   |   |   |   |   |   Cluster > 7: Con Heridos (10.0)
|   |   |   |   |   |   |   |   |   |   |   |   |   PERSONAS IMPLICADAS > 7
|   |   |   |   |   |   |   |   |   |   |   |   |   |   EDAD <= 36: Con Heridos (2.0)
|   |   |   |   |   |   |   |   |   |   |   |   |   |   EDAD > 36: Solo Daños (6.0)
|   |   |   |   |   |   |   |   |   |   |   EDAD > 49
|   |   |   |   |   |   |   |   |   |   |   |   PERSONAS IMPLICADAS <= 7
|   |   |   |   |   |   |   |   |   |   |   |   |   EDAD <= 67: Con Heridos (42.0/2.0)
|   |   |   |   |   |   |   |   |   |   |   |   |   EDAD > 67
|   |   |   |   |   |   |   |   |   |   |   |   |   |   EDAD <= 69: Solo Daños (2.0)
|   |   |   |   |   |   |   |   |   |   |   |   |   |   EDAD > 69: Con Heridos (2.0)
|   |   |   |   |   |   |   |   |   |   |   |   PERSONAS IMPLICADAS > 7
|   |   |   |   |   |   |   |   |   |   |   |   |   DIA_SEMANA = LABORAL
|   |   |   |   |   |   |   |   |   |   |   |   |   |   Cluster <= 7: Con Muertos (2.0)
|   |   |   |   |   |   |   |   |   |   |   |   |   |   Cluster > 7: Con Heridos (6.0)
|   |   |   |   |   |   |   |   |   |   |   |   |   DIA_SEMANA = FDS: Solo Daños (2.0)
|   |   |   |   |   |   |   |   |   |   SEXO = SIN INFORMACION
|   |   |   |   |   |   |   |   |   |   |   Cluster <= 7: Con Heridos (4.0)
|   |   |   |   |   |   |   |   |   |   |   Cluster > 7
|   |   |   |   |   |   |   |   |   |   |   |   PERSONAS IMPLICADAS <= 7
|   |   |   |   |   |   |   |   |   |   |   |   |   EDAD <= 38: Solo Daños (2.0)
|   |   |   |   |   |   |   |   |   |   |   |   |   EDAD > 38: Con Heridos (2.0)
|   |   |   |   |   |   |   |   |   |   |   |   PERSONAS IMPLICADAS > 7: Solo Daños (8.0)
|   |   |   |   |   |   |   |   |   HORA = Tarde
|   |   |   |   |   |   |   |   |   |   DIA_SEMANA = LABORAL
|   |   |   |   |   |   |   |   |   |   |   Cluster <= 7
|   |   |   |   |   |   |   |   |   |   |   |   EDAD <= 37
|   |   |   |   |   |   |   |   |   |   |   |   |   EDAD <= 13: Solo Daños (3.0)
|   |   |   |   |   |   |   |   |   |   |   |   |   EDAD > 13
|   |   |   |   |   |   |   |   |   |   |   |   |   |   EDAD <= 35: Con Heridos (19.0/3.0)
|   |   |   |   |   |   |   |   |   |   |   |   |   |   EDAD > 35: Solo Daños (3.0)
|   |   |   |   |   |   |   |   |   |   |   |   EDAD > 37: Con Heridos (22.0)
|   |   |   |   |   |   |   |   |   |   |   Cluster > 7
|   |   |   |   |   |   |   |   |   |   |   |   EDAD <= 33: Con Heridos (26.16/2.0)
|   |   |   |   |   |   |   |   |   |   |   |   EDAD > 33
|   |   |   |   |   |   |   |   |   |   |   |   |   EDAD <= 34: Solo Daños (4.19/0.19)
|   |   |   |   |   |   |   |   |   |   |   |   |   EDAD > 34: Con Heridos (59.65/9.0)
|   |   |   |   |   |   |   |   |   |   DIA_SEMANA = FDS
|   |   |   |   |   |   |   |   |   |   |   PERSONAS IMPLICADAS <= 7
|   |   |   |   |   |   |   |   |   |   |   |   EDAD <= 41: Con Heridos (38.21/13.0)
|   |   |   |   |   |   |   |   |   |   |   |   EDAD > 41
|   |   |   |   |   |   |   |   |   |   |   |   |   EDAD <= 48: Solo Daños (11.36/0.36)
|   |   |   |   |   |   |   |   |   |   |   |   |   EDAD > 48: Con Heridos (13.43/4.0)
|   |   |   |   |   |   |   |   |   |   |   PERSONAS IMPLICADAS > 7
|   |   |   |   |   |   |   |   |   |   |   |   EDAD <= 50: Con Muertos (4.0)
|   |   |   |   |   |   |   |   |   |   |   |   EDAD > 50: Solo Daños (4.0)
|   |   |   |   |   |   |   |   |   HORA = Anochecer
|   |   |   |   |   |   |   |   |   |   PERSONAS IMPLICADAS <= 7
|   |   |   |   |   |   |   |   |   |   |   EDAD <= 57
|   |   |   |   |   |   |   |   |   |   |   |   EDAD <= 28
|   |   |   |   |   |   |   |   |   |   |   |   |   DIA_SEMANA = LABORAL
|   |   |   |   |   |   |   |   |   |   |   |   |   |   EDAD <= 27
|   |   |   |   |   |   |   |   |   |   |   |   |   |   |   EDAD <= 20: Solo Daños (2.11/0.11)
|   |   |   |   |   |   |   |   |   |   |   |   |   |   |   EDAD > 20
|   |   |   |   |   |   |   |   |   |   |   |   |   |   |   |   EDAD <= 24: Con Heridos (2.11)
|   |   |   |   |   |   |   |   |   |   |   |   |   |   |   |   EDAD > 24: Solo Daños (2.11/0.11)
|   |   |   |   |   |   |   |   |   |   |   |   |   |   EDAD > 27: Con Heridos (4.22)
|   |   |   |   |   |   |   |   |   |   |   |   |   DIA_SEMANA = FDS: Solo Daños (2.0)
|   |   |   |   |   |   |   |   |   |   |   |   EDAD > 28: Con Heridos (64.88/9.0)
|   |   |   |   |   |   |   |   |   |   |   EDAD > 57
|   |   |   |   |   |   |   |   |   |   |   |   DIA_SEMANA = LABORAL
|   |   |   |   |   |   |   |   |   |   |   |   |   EDAD <= 60: Con Muertos (2.19/0.19)
|   |   |   |   |   |   |   |   |   |   |   |   |   EDAD > 60: Con Heridos (4.37)
|   |   |   |   |   |   |   |   |   |   |   |   DIA_SEMANA = FDS
|   |   |   |   |   |   |   |   |   |   |   |   |   EDAD <= 59: Solo Daños (2.0)
|   |   |   |   |   |   |   |   |   |   |   |   |   EDAD > 59
|   |   |   |   |   |   |   |   |   |   |   |   |   |   EDAD <= 65: Con Heridos (2.0)
|   |   |   |   |   |   |   |   |   |   |   |   |   |   EDAD > 65: Solo Daños (2.0)
|   |   |   |   |   |   |   |   |   |   PERSONAS IMPLICADAS > 7
|   |   |   |   |   |   |   |   |   |   |   DIA_SEMANA = LABORAL
|   |   |   |   |   |   |   |   |   |   |   |   SEXO = FEMENINO: Con Heridos (2.0)
|   |   |   |   |   |   |   |   |   |   |   |   SEXO = MASCULINO
|   |   |   |   |   |   |   |   |   |   |   |   |   EDAD <= 29: Con Heridos (2.0)
|   |   |   |   |   |   |   |   |   |   |   |   |   EDAD > 29
|   |   |   |   |   |   |   |   |   |   |   |   |   |   EDAD <= 41: Solo Daños (22.0/2.0)
|   |   |   |   |   |   |   |   |   |   |   |   |   |   EDAD > 41
|   |   |   |   |   |   |   |   |   |   |   |   |   |   |   EDAD <= 62: Con Heridos (6.0)
|   |   |   |   |   |   |   |   |   |   |   |   |   |   |   EDAD > 62: Solo Daños (4.0)
|   |   |   |   |   |   |   |   |   |   |   |   SEXO = SIN INFORMACION: Solo Daños (6.0/2.0)
|   |   |   |   |   |   |   |   |   |   |   DIA_SEMANA = FDS
|   |   |   |   |   |   |   |   |   |   |   |   EDAD <= 34: Con Muertos (2.8/0.8)
|   |   |   |   |   |   |   |   |   |   |   |   EDAD > 34: Con Heridos (11.2)
|   |   |   |   |   |   |   |   |   HORA = Madrugada
|   |   |   |   |   |   |   |   |   |   EDAD <= 41: Con Heridos (69.26/5.0)
|   |   |   |   |   |   |   |   |   |   EDAD > 41
|   |   |   |   |   |   |   |   |   |   |   EDAD <= 44: Solo Daños (3.35/0.35)
|   |   |   |   |   |   |   |   |   |   |   EDAD > 44: Con Heridos (32.39/3.0)
|   |   |   |   |   |   |   Cluster > 8
|   |   |   |   |   |   |   |   SEXO = FEMENINO
|   |   |   |   |   |   |   |   |   DIA_SEMANA = LABORAL
|   |   |   |   |   |   |   |   |   |   PERSONAS IMPLICADAS <= 7
|   |   |   |   |   |   |   |   |   |   |   EDAD <= 35
|   |   |   |   |   |   |   |   |   |   |   |   EDAD <= 30: Con Heridos (5.0)
|   |   |   |   |   |   |   |   |   |   |   |   EDAD > 30: Solo Daños (2.0)
|   |   |   |   |   |   |   |   |   |   |   EDAD > 35: Con Heridos (11.0)
|   |   |   |   |   |   |   |   |   |   PERSONAS IMPLICADAS > 7: Solo Daños (4.0)
|   |   |   |   |   |   |   |   |   DIA_SEMANA = FDS
|   |   |   |   |   |   |   |   |   |   HORA = Mañana: Solo Daños (11.0)
|   |   |   |   |   |   |   |   |   |   HORA = Tarde
|   |   |   |   |   |   |   |   |   |   |   EDAD <= 46
|   |   |   |   |   |   |   |   |   |   |   |   EDAD <= 30: Con Heridos (2.0)
|   |   |   |   |   |   |   |   |   |   |   |   EDAD > 30: Solo Daños (6.0)
|   |   |   |   |   |   |   |   |   |   |   EDAD > 46: Con Heridos (6.0)
|   |   |   |   |   |   |   |   |   |   HORA = Anochecer: Solo Daños (0.0)
|   |   |   |   |   |   |   |   |   |   HORA = Madrugada: Solo Daños (6.0)
|   |   |   |   |   |   |   |   SEXO = MASCULINO
|   |   |   |   |   |   |   |   |   HORA = Mañana
|   |   |   |   |   |   |   |   |   |   Cluster <= 9: Con Heridos (11.0)
|   |   |   |   |   |   |   |   |   |   Cluster > 9
|   |   |   |   |   |   |   |   |   |   |   DIA_SEMANA = LABORAL
|   |   |   |   |   |   |   |   |   |   |   |   PERSONAS IMPLICADAS <= 7: Con Heridos (24.0/10.0)
|   |   |   |   |   |   |   |   |   |   |   |   PERSONAS IMPLICADAS > 7
|   |   |   |   |   |   |   |   |   |   |   |   |   EDAD <= 36
|   |   |   |   |   |   |   |   |   |   |   |   |   |   EDAD <= 22: Con Heridos (2.0)
|   |   |   |   |   |   |   |   |   |   |   |   |   |   EDAD > 22: Solo Daños (8.0)
|   |   |   |   |   |   |   |   |   |   |   |   |   EDAD > 36: Con Heridos (10.0/2.0)
|   |   |   |   |   |   |   |   |   |   |   DIA_SEMANA = FDS: Solo Daños (7.0)
|   |   |   |   |   |   |   |   |   HORA = Tarde
|   |   |   |   |   |   |   |   |   |   PERSONAS IMPLICADAS <= 7
|   |   |   |   |   |   |   |   |   |   |   DIA_SEMANA = LABORAL
|   |   |   |   |   |   |   |   |   |   |   |   Cluster <= 9: Con Heridos (10.0)
|   |   |   |   |   |   |   |   |   |   |   |   Cluster > 9
|   |   |   |   |   |   |   |   |   |   |   |   |   EDAD <= 58
|   |   |   |   |   |   |   |   |   |   |   |   |   |   EDAD <= 22: Con Heridos (2.0)
|   |   |   |   |   |   |   |   |   |   |   |   |   |   EDAD > 22: Solo Daños (12.0/3.0)
|   |   |   |   |   |   |   |   |   |   |   |   |   EDAD > 58: Con Heridos (6.0)
|   |   |   |   |   |   |   |   |   |   |   DIA_SEMANA = FDS
|   |   |   |   |   |   |   |   |   |   |   |   Cluster <= 9: Solo Daños (8.0/2.0)
|   |   |   |   |   |   |   |   |   |   |   |   Cluster > 9
|   |   |   |   |   |   |   |   |   |   |   |   |   EDAD <= 72: Con Heridos (11.0)
|   |   |   |   |   |   |   |   |   |   |   |   |   EDAD > 72: Solo Daños (2.0)
|   |   |   |   |   |   |   |   |   |   PERSONAS IMPLICADAS > 7
|   |   |   |   |   |   |   |   |   |   |   DIA_SEMANA = LABORAL
|   |   |   |   |   |   |   |   |   |   |   |   EDAD <= 23: Con Heridos (2.0)
|   |   |   |   |   |   |   |   |   |   |   |   EDAD > 23
|   |   |   |   |   |   |   |   |   |   |   |   |   EDAD <= 74: Solo Daños (10.0)
|   |   |   |   |   |   |   |   |   |   |   |   |   EDAD > 74: Con Heridos (2.0)
|   |   |   |   |   |   |   |   |   |   |   DIA_SEMANA = FDS: Con Heridos (4.0)
|   |   |   |   |   |   |   |   |   HORA = Anochecer
|   |   |   |   |   |   |   |   |   |   DIA_SEMANA = LABORAL
|   |   |   |   |   |   |   |   |   |   |   Cluster <= 9
|   |   |   |   |   |   |   |   |   |   |   |   EDAD <= 38: Solo Daños (24.0/2.0)
|   |   |   |   |   |   |   |   |   |   |   |   EDAD > 38
|   |   |   |   |   |   |   |   |   |   |   |   |   EDAD <= 47: Con Heridos (2.0)
|   |   |   |   |   |   |   |   |   |   |   |   |   EDAD > 47
|   |   |   |   |   |   |   |   |   |   |   |   |   |   EDAD <= 56: Solo Daños (2.0)
|   |   |   |   |   |   |   |   |   |   |   |   |   |   EDAD > 56: Con Heridos (2.0)
|   |   |   |   |   |   |   |   |   |   |   Cluster > 9
|   |   |   |   |   |   |   |   |   |   |   |   EDAD <= 65
|   |   |   |   |   |   |   |   |   |   |   |   |   EDAD <= 53
|   |   |   |   |   |   |   |   |   |   |   |   |   |   EDAD <= 37: Con Heridos (4.0)
|   |   |   |   |   |   |   |   |   |   |   |   |   |   EDAD > 37: Solo Daños (3.0)
|   |   |   |   |   |   |   |   |   |   |   |   |   EDAD > 53: Con Heridos (8.0)
|   |   |   |   |   |   |   |   |   |   |   |   EDAD > 65: Solo Daños (3.0)
|   |   |   |   |   |   |   |   |   |   DIA_SEMANA = FDS: Con Heridos (6.0)
|   |   |   |   |   |   |   |   |   HORA = Madrugada
|   |   |   |   |   |   |   |   |   |   DIA_SEMANA = LABORAL
|   |   |   |   |   |   |   |   |   |   |   EDAD <= 47: Con Heridos (20.0)
|   |   |   |   |   |   |   |   |   |   |   EDAD > 47
|   |   |   |   |   |   |   |   |   |   |   |   EDAD <= 49: Solo Daños (4.0)
|   |   |   |   |   |   |   |   |   |   |   |   EDAD > 49
|   |   |   |   |   |   |   |   |   |   |   |   |   PERSONAS IMPLICADAS <= 7
|   |   |   |   |   |   |   |   |   |   |   |   |   |   EDAD <= 55: Con Heridos (2.0)
|   |   |   |   |   |   |   |   |   |   |   |   |   |   EDAD > 55: Con Muertos (2.0)
|   |   |   |   |   |   |   |   |   |   |   |   |   PERSONAS IMPLICADAS > 7: Con Heridos (4.0)
|   |   |   |   |   |   |   |   |   |   DIA_SEMANA = FDS
|   |   |   |   |   |   |   |   |   |   |   Cluster <= 9
|   |   |   |   |   |   |   |   |   |   |   |   EDAD <= 38: Solo Daños (8.0)
|   |   |   |   |   |   |   |   |   |   |   |   EDAD > 38
|   |   |   |   |   |   |   |   |   |   |   |   |   EDAD <= 49: Con Heridos (4.0)
|   |   |   |   |   |   |   |   |   |   |   |   |   EDAD > 49: Solo Daños (2.0)
|   |   |   |   |   |   |   |   |   |   |   Cluster > 9
|   |   |   |   |   |   |   |   |   |   |   |   EDAD <= 37: Con Heridos (2.0)
|   |   |   |   |   |   |   |   |   |   |   |   EDAD > 37: Solo Daños (6.0/2.0)
|   |   |   |   |   |   |   |   SEXO = SIN INFORMACION
|   |   |   |   |   |   |   |   |   PERSONAS IMPLICADAS <= 7
|   |   |   |   |   |   |   |   |   |   DIA_SEMANA = LABORAL: Con Heridos (6.0)
|   |   |   |   |   |   |   |   |   |   DIA_SEMANA = FDS
|   |   |   |   |   |   |   |   |   |   |   HORA = Mañana: Con Heridos (0.0)
|   |   |   |   |   |   |   |   |   |   |   HORA = Tarde: Solo Daños (2.0)
|   |   |   |   |   |   |   |   |   |   |   HORA = Anochecer: Con Heridos (0.0)
|   |   |   |   |   |   |   |   |   |   |   HORA = Madrugada: Con Heridos (2.0)
|   |   |   |   |   |   |   |   |   PERSONAS IMPLICADAS > 7: Solo Daños (16.0)
|   |   |   |   |   TIPO LUGAR = Via
|   |   |   |   |   |   Cluster <= 0
|   |   |   |   |   |   |   SEXO = FEMENINO
|   |   |   |   |   |   |   |   HORA = Mañana
|   |   |   |   |   |   |   |   |   CHOQUE_CON = Vehiculo
|   |   |   |   |   |   |   |   |   |   EDAD <= 49
|   |   |   |   |   |   |   |   |   |   |   EDAD <= 30
|   |   |   |   |   |   |   |   |   |   |   |   EDAD <= 24: Con Heridos (2.0)
|   |   |   |   |   |   |   |   |   |   |   |   EDAD > 24: Solo Daños (2.0)
|   |   |   |   |   |   |   |   |   |   |   EDAD > 30: Con Heridos (11.0)
|   |   |   |   |   |   |   |   |   |   EDAD > 49: Solo Daños (4.0)
|   |   |   |   |   |   |   |   |   CHOQUE_CON = Objeto Fijo: Solo Daños (4.0)
|   |   |   |   |   |   |   |   HORA = Tarde
|   |   |   |   |   |   |   |   |   DIA_SEMANA = LABORAL
|   |   |   |   |   |   |   |   |   |   EDAD <= 24: Con Heridos (2.0)
|   |   |   |   |   |   |   |   |   |   EDAD > 24: Solo Daños (7.0)
|   |   |   |   |   |   |   |   |   DIA_SEMANA = FDS
|   |   |   |   |   |   |   |   |   |   EDAD <= 27: Solo Daños (2.0)
|   |   |   |   |   |   |   |   |   |   EDAD > 27: Con Heridos (6.0)
|   |   |   |   |   |   |   |   HORA = Anochecer: Solo Daños (9.0/1.0)
|   |   |   |   |   |   |   |   HORA = Madrugada
|   |   |   |   |   |   |   |   |   PERSONAS IMPLICADAS <= 7
|   |   |   |   |   |   |   |   |   |   EDAD <= 44: Solo Daños (4.0)
|   |   |   |   |   |   |   |   |   |   EDAD > 44: Con Heridos (2.0)
|   |   |   |   |   |   |   |   |   PERSONAS IMPLICADAS > 7: Con Heridos (2.0)
|   |   |   |   |   |   |   SEXO = MASCULINO
|   |   |   |   |   |   |   |   HORA = Mañana
|   |   |   |   |   |   |   |   |   CHOQUE_CON = Vehiculo
|   |   |   |   |   |   |   |   |   |   PERSONAS IMPLICADAS <= 7
|   |   |   |   |   |   |   |   |   |   |   PERSONAS IMPLICADAS <= 6
|   |   |   |   |   |   |   |   |   |   |   |   EDAD <= 50
|   |   |   |   |   |   |   |   |   |   |   |   |   EDAD <= 22
|   |   |   |   |   |   |   |   |   |   |   |   |   |   EDAD <= 21
|   |   |   |   |   |   |   |   |   |   |   |   |   |   |   EDAD <= 10: Solo Daños (2.0)
|   |   |   |   |   |   |   |   |   |   |   |   |   |   |   EDAD > 10: Con Heridos (6.0)
|   |   |   |   |   |   |   |   |   |   |   |   |   |   EDAD > 21: Con Muertos (4.0/1.0)
|   |   |   |   |   |   |   |   |   |   |   |   |   EDAD > 22
|   |   |   |   |   |   |   |   |   |   |   |   |   |   EDAD <= 35
|   |   |   |   |   |   |   |   |   |   |   |   |   |   |   EDAD <= 30: Con Heridos (38.0/6.0)
|   |   |   |   |   |   |   |   |   |   |   |   |   |   |   EDAD > 30: Solo Daños (15.0/5.0)
|   |   |   |   |   |   |   |   |   |   |   |   |   |   EDAD > 35: Con Heridos (58.0/9.0)
|   |   |   |   |   |   |   |   |   |   |   |   EDAD > 50
|   |   |   |   |   |   |   |   |   |   |   |   |   EDAD <= 54: Solo Daños (10.0/2.0)
|   |   |   |   |   |   |   |   |   |   |   |   |   EDAD > 54
|   |   |   |   |   |   |   |   |   |   |   |   |   |   EDAD <= 67
|   |   |   |   |   |   |   |   |   |   |   |   |   |   |   EDAD <= 58: Con Heridos (4.0)
|   |   |   |   |   |   |   |   |   |   |   |   |   |   |   EDAD > 58
|   |   |   |   |   |   |   |   |   |   |   |   |   |   |   |   EDAD <= 61: Con Muertos (2.0)
|   |   |   |   |   |   |   |   |   |   |   |   |   |   |   |   EDAD > 61: Con Heridos (2.0)
|   |   |   |   |   |   |   |   |   |   |   |   |   |   EDAD > 67: Solo Daños (2.0)
|   |   |   |   |   |   |   |   |   |   |   PERSONAS IMPLICADAS > 6: Con Heridos (13.0)
|   |   |   |   |   |   |   |   |   |   PERSONAS IMPLICADAS > 7
|   |   |   |   |   |   |   |   |   |   |   DIA_SEMANA = LABORAL
|   |   |   |   |   |   |   |   |   |   |   |   EDAD <= 65
|   |   |   |   |   |   |   |   |   |   |   |   |   EDAD <= 34
|   |   |   |   |   |   |   |   |   |   |   |   |   |   EDAD <= 30
|   |   |   |   |   |   |   |   |   |   |   |   |   |   |   EDAD <= 23
|   |   |   |   |   |   |   |   |   |   |   |   |   |   |   |   EDAD <= 22: Solo Daños (2.0)
|   |   |   |   |   |   |   |   |   |   |   |   |   |   |   |   EDAD > 22: Con Muertos (2.0)
|   |   |   |   |   |   |   |   |   |   |   |   |   |   |   EDAD > 23
|   |   |   |   |   |   |   |   |   |   |   |   |   |   |   |   EDAD <= 26
|   |   |   |   |   |   |   |   |   |   |   |   |   |   |   |   |   EDAD <= 24: Solo Daños (2.0)
|   |   |   |   |   |   |   |   |   |   |   |   |   |   |   |   |   EDAD > 24: Con Heridos (2.0)
|   |   |   |   |   |   |   |   |   |   |   |   |   |   |   |   EDAD > 26: Solo Daños (6.0)
|   |   |   |   |   |   |   |   |   |   |   |   |   |   EDAD > 30: Con Muertos (2.0)
|   |   |   |   |   |   |   |   |   |   |   |   |   EDAD > 34
|   |   |   |   |   |   |   |   |   |   |   |   |   |   EDAD <= 36: Con Heridos (4.0)
|   |   |   |   |   |   |   |   |   |   |   |   |   |   EDAD > 36: Solo Daños (18.0/6.0)
|   |   |   |   |   |   |   |   |   |   |   |   EDAD > 65: Con Muertos (2.0)
|   |   |   |   |   |   |   |   |   |   |   DIA_SEMANA = FDS
|   |   |   |   |   |   |   |   |   |   |   |   EDAD <= 37: Con Heridos (5.0)
|   |   |   |   |   |   |   |   |   |   |   |   EDAD > 37
|   |   |   |   |   |   |   |   |   |   |   |   |   EDAD <= 40: Solo Daños (4.0)
|   |   |   |   |   |   |   |   |   |   |   |   |   EDAD > 40: Con Heridos (2.0)
|   |   |   |   |   |   |   |   |   CHOQUE_CON = Objeto Fijo
|   |   |   |   |   |   |   |   |   |   EDAD <= 29: Con Heridos (4.0)
|   |   |   |   |   |   |   |   |   |   EDAD > 29: Solo Daños (19.0/1.0)
|   |   |   |   |   |   |   |   HORA = Tarde
|   |   |   |   |   |   |   |   |   EDAD <= 25: Con Heridos (32.0/3.0)
